iy,-0.56834806168,0.59529127282,0.219129992624,-0.183439915176,-0.348877004497,-0.648405918437,-0.362088904073,-0.0709615952037,-0.488215459478,-0.546685419951,0.309159210743,-0.603525754273,0.232036824613,0.066364941424,-0.578636875169,-0.622997265709,-0.0957667825833,0.469409690492,0.436428212537,-0.445079075946,0.526132547783,-0.4636790735,0.638144724005,0.337552174657,-0.631714139168
aa,-0.232048546907,-0.641569858066,0.0403898382653,-0.16279119737,0.415709431451,0.404372352219,0.0666908733311,0.196719527695,-0.575445791357,0.0183947932335,0.182513133718,0.487998698202,-0.659031986778,0.2856722825,0.696491016943,-0.580739478536,-0.469306454716,0.764918557689,-0.228904373092,-0.42443463349,0.601449870996,-0.331332489755,-0.445744383037,0.225554364063,0.329408686352
en,-0.195160809005,0.385063772358,-0.477411896419,-0.377167739652,-0.0491064281341,-0.417231830792,0.0608128825976,0.103623494026,-0.290238303264,-0.403413302196,0.333985362905,-0.0859259019403,0.434642666952,-0.323187214007,-0.27475789437,0.350169468601,-0.388943283836,0.428925241743,0.258091271588,0.577056690013,-0.417809889176,-0.0480817545813,-0.317970898429,0.182501450301,0.581987386319
ae,0.415128072569,0.23654719471,-0.166245562614,-0.400423735146,0.13785533245,-0.456638879946,0.244177897552,-0.655443215334,-0.59530381916,0.558752883625,-0.0999546104961,-0.542199811811,-0.620201491947,0.635623500683,-0.312169298897,0.450204407963,-0.290702696817,-0.271495003671,-0.552840291812,0.554184561791,0.420714708591,-0.540788613243,-0.0733268311421,-0.335198864963,0.419348997901
eh,-0.468384862068,-0.342627053,-0.521280821137,-0.189292782473,0.67138106465,0.492585929624,0.0676785953246,-0.41430279558,0.583315466749,-0.738576596174,0.416019843306,-0.579654837687,0.214684398376,0.433498472992,0.61894441117,0.295808449909,-0.340734083734,-0.389195988646,-0.553097721304,-0.184367192285,0.545543358268,-0.557782648393,0.591934172908,-0.110841562131,0.464608446843
el,-0.382315331878,0.200819705724,0.192348008374,0.0417795439246,0.388929262063,-0.224789800527,-0.123568955957,0.254587101285,0.332331312809,-0.271109182012,0.219959663023,0.231381704728,-0.317179936163,0.28707958458,-0.325785813248,-0.272673932274,0.330211408284,0.236224942333,0.327045150771,0.304088176395,-0.156889501221,0.0154041646222,0.164620599115,0.360844794064,-0.105406753924
ah,0.324203930111,-0.569746208303,0.535706188639,-0.480050933812,0.436173184493,-0.409641020531,0.403599422985,0.784274529118,-0.411667425776,0.479633139137,0.556670267624,0.0887448172612,0.465251970326,-0.421229024825,0.392864212699,-0.761682496298,0.358230868823,-0.533760464009,-0.445001245009,-0.418020812214,-0.426016719865,-0.434076146405,0.34187673041,-0.71283254479,0.477785853886
ahn,-0.147743429478,-0.0733891807828,-0.00735921015802,-0.00769687686317,0.0494183472604,-0.0809778100743,-0.0261888708759,-0.0126886786541,-0.0602757827208,0.0493249698044,0.0811205765168,0.0446340633706,-0.0839926528753,0.0756645494996,-0.0339252791007,-0.0396272190011,-0.0541899251034,0.119327520092,-0.0481859607707,0.162176323575,-0.0258679068695,0.00794227807449,0.0317615920872,-0.0296792827885,0.0201533342315
ow,-0.573600822393,0.43915583705,0.527363441702,-0.604381912586,0.329089074549,-0.0204405719751,-0.596553368834,-0.467266612105,0.157142554043,0.328658147859,-0.43508107953,0.642196623382,0.293317768145,0.308501373263,0.577320485991,-0.463440905134,-0.566147468678,-0.299451841538,-0.259237284398,-0.152319807955,0.295220048713,0.626046902244,0.348506546762,0.244491068861,0.400234407601
ao,-0.438791881768,0.412468936421,0.282855663881,-0.357632626586,-0.544170584778,0.0958522539056,-0.308385746751,0.329288773895,-0.267131637218,-0.374842337511,-0.504246644813,0.288115442291,-0.513407571641,0.549149804867,0.448309436367,-0.00294397825272,0.332801577118,0.531243350123,-0.549745318926,0.530335884042,-0.179270529663,-0.217847035903,0.511021484913,-0.449285345546,0.339725841061
w,0.030279830947,0.451841783783,0.285936692361,-0.54232917888,-0.504051707146,-0.532916302454,-0.267060552174,0.585212410007,-0.630168809987,-0.439406535054,-0.523613100415,0.741864481369,-0.577047673218,-0.508307547733,-0.550700957509,-0.258792968665,0.182161844613,0.034431485685,0.0828710750723,-0.238490848364,-0.549711679558,0.39176150866,-0.616451041022,-0.382848104628,-0.709751129119
ih,-0.427946834894,-0.37488456992,-0.406090068291,0.614754205525,-0.434327585767,-0.609162956862,-0.569396354894,0.410036033908,-0.483141873118,0.566523865278,-0.000265732490107,-0.558671736385,0.473844458776,0.440955116011,0.38271237818,0.55501283269,-0.623410292712,-0.220575909263,-0.654297747805,-0.624502876088,-0.628734428465,0.129125326145,0.363265386152,0.525420246228,-0.20261778198
ch,0.253504662484,-0.378899208705,-0.415323327425,0.327492850802,0.172900328703,0.405906561338,0.280520275391,-0.329358441506,0.267366955742,-0.329208677819,-0.401801589339,0.35911873695,0.115117757881,-0.273597471919,-0.230402253287,-0.377687202734,0.127601814933,0.0883776648291,-0.329060826838,-0.240581144885,0.0947697292465,0.065832136694,0.275267266002,0.0262348017504,0.151183154911
ey,0.38690483928,-0.345041610974,0.222362801378,0.294651487161,0.351272033207,-0.4415222659,-0.596165287866,0.551461072652,0.438344435821,0.226950447334,-0.522507549897,-0.494822439137,-0.316162695877,0.315062215047,-0.442360263243,-0.529163947222,-0.122638793894,-0.472051757207,-0.464599510174,0.419163819822,0.539417355178,0.488573128995,0.438524311562,-0.441687209772,-0.365627054257
aw,-0.139486300331,-0.392122364493,-0.325797119844,-0.471769475419,0.201794918691,-0.391280348698,-0.355267122357,-0.278482681021,-0.141699465718,0.275283980518,0.352132529007,0.0492681370483,-0.551048320643,0.266396430106,0.427347410556,-0.306473117327,-0.119193085524,0.211241581225,0.305153948746,0.521885766375,-0.265308816042,0.0681276536053,0.331723498656,0.20348676532,-0.165034342466
ay,0.517742194814,0.536036903996,0.482735698717,0.31838921707,-0.334995739828,-0.50648189268,0.34384291597,0.464943175987,-0.489533362472,0.25182245637,0.477991436893,-0.382993912799,-0.547522270081,-0.398198152184,0.608451337766,0.539619215301,0.314437706661,0.554134058035,0.101331897622,-0.0879592194894,0.502409611238,0.566466810759,0.237811190667,0.187646452092,0.502114811213
zh,-0.0134301322129,-0.0915557521079,-0.196106800455,0.0276917971514,-0.0566866444602,-0.0358786815392,0.0161520180026,-0.0668358086239,0.0381906398446,-0.0344395081481,-0.0455215439154,0.152007636735,-0.025738127674,-0.00951265057732,-0.0966864983055,-0.00152251843645,0.0582688332223,0.0342507138534,0.0953229678923,0.0782048969346,-0.0156628827633,0.0667460412545,-0.0536542697219,-0.0383818905312,-0.0458420353722
tq,-0.147059095851,0.20267776098,-0.35550961819,0.228619377828,-0.619039630656,-0.287996620025,0.54212446789,-0.0861743537799,0.62304134919,0.506126337951,-0.483062691696,0.507638715746,-0.448529452643,-0.422132965913,0.389502919525,-0.508087676258,-0.322494662344,-0.106049969489,0.411936991627,0.400235591773,0.22736791198,-0.280945277281,-0.524959274671,-0.0551822150116,0.653088981988
er,0.0138871291446,0.368914772001,0.597064712418,0.539813531101,0.50258120418,-0.540861383436,-0.61498042517,-0.33248182121,0.297362171621,-0.126312046137,0.496337626654,0.424424346866,0.164101985014,0.0478362345057,-0.554803891041,0.538623970893,0.178963048091,0.479447625914,-0.507281039118,-0.366495577832,-0.408453363956,-0.511350502807,-0.237781868851,-0.421394792551,0.536324804688
#,-0.0149172437938,-0.0260221243082,-0.111679238767,-0.00635907502978,-0.0161448990296,-0.00796130428335,-0.0259559464602,0.0145499038747,0.00285630605829,-0.0211759411435,-0.012871800039,0.113185437438,-0.0559877868692,0.0329724028373,-0.0273235028013,-0.011390326943,0.0283832345245,0.0633831931811,0.0217580929164,0.104523099187,0.00415158110771,0.0389154966366,-0.0221611165438,-0.016057743043,0.00115914586227
ayn,-0.0273525909,-0.0325612296827,-0.0780266153548,-0.00468655921877,0.00173441997402,-0.0192549681071,-0.0299089666981,0.0143401279277,-0.00247266992449,-0.0232173462132,0.00627464340243,0.103804536702,-0.064991347667,0.0399662126894,-0.0274297314526,-0.00971105105947,0.0105341790518,0.0706109227029,0.0126474236267,0.115855639298,0.00542143244935,0.0359630701075,-0.0113861654021,-0.0124127314083,0.00448825382834
eng,-0.0271278574805,-0.0183274923338,-0.107008066795,-0.00677998281638,-0.0168574676258,-0.0151203901491,-0.0321843792287,0.021796394931,-0.0113306458226,-0.0176059071414,-0.0108009256626,0.107867721517,-0.0637220359255,0.0500536930237,-0.0267007278204,-0.0133595030921,0.025851854165,0.0733233848117,0.00309485351048,0.107761854695,0.00323483739921,0.0371296316087,-0.0188175221196,-0.0271277975481,0.0158519714865
aan,-0.0808249747238,-0.0589208442181,-0.0541593763136,0.0161420570509,0.0432879658999,-0.0462118705982,-0.0415142343053,0.0369276510358,-0.0307930097954,-0.000832198410385,0.0382323306045,0.055038479863,-0.0588159916927,0.0943928225495,-0.0294569008083,-0.0330603375043,-0.000548713939853,0.0869385974819,-0.0344712584036,0.123645443238,0.0192970447586,0.0192375809733,0.00832506388256,0.00276525733369,0.0601463060653
eyn,-0.0365906697158,-0.0407490367286,-0.0972255008475,-0.0108007042624,0.00295320965675,-0.0224860144551,-0.0317862919861,0.0173142311285,-0.00138929818217,-0.0151605986646,-0.00237986965155,0.0919024871594,-0.0594083140779,0.0360561422497,-0.0330112931307,-0.00560872274421,0.0184711586663,0.0659404716837,-0.000336889967869,0.104045900239,0.0119870660001,0.0353604806178,-0.0100102200213,-0.0194787601387,0.0129950538938
nx,-0.445633797132,0.214837455495,0.243365192897,-0.392802367709,-0.291482334852,0.220718708844,0.550740769838,-0.212868299264,0.469415176325,0.434738913259,-0.377525752183,0.480539421188,0.33821315016,-0.543380357407,-0.35534858187,0.617967880838,0.569579602216,-0.375651596282,-0.253842856993,0.604313839763,-0.343094936483,-0.069412889089,0.252272702966,0.425410607681,-0.561561956596
oyn,-0.0324278316688,-0.0421386555816,-0.0940325010112,-0.00364935104691,0.00231456603432,-0.0204633048798,-0.0413695444178,0.0207353136127,-0.0080813032031,-0.0154482176225,0.0100294412434,0.0857974085189,-0.0649974099593,0.054433147902,-0.0204396567796,-0.0191580324928,0.0215103363677,0.0782677689348,0.00843620684295,0.11957006623,0.0057320593227,0.0234485275387,-0.0103773500066,-0.00608666765055,0.0187187093791
r,0.106222036528,0.0240928904389,0.384338698173,0.570509347818,0.289304321806,0.716560969966,-0.485137033367,0.49061611202,0.458587964769,0.369477652667,0.320308519213,-0.10044397745,-0.521497383692,0.565166830635,0.460630457546,0.507175116108,0.5055046881,-0.506778747588,0.413960476405,0.603161887903,-0.548788410456,-0.115932098329,-0.726606077668,-0.496878196149,-0.152799492239
th,0.103152364486,0.517594379989,-0.592420163754,0.0533035297701,0.204434137665,-0.0400484064284,-0.628936427097,-0.420687134982,0.535643467976,-0.679699952288,-0.560589867175,0.426935773128,-0.46152434598,0.0393400023941,-0.258536850919,0.264872169475,0.0951642716182,0.549742803693,0.166257514493,-0.285326165039,0.306923019997,0.403359338985,-0.287378702196,-0.245223468958,0.153977115587
t,0.690183318695,0.0472318829501,0.271388018384,0.234260677159,-0.445533469853,0.696584776625,-0.533479489109,0.323715007043,0.0364416457951,0.395873875887,-0.815663238977,0.342950227505,0.554002007195,-0.515483282732,-0.60406074377,-0.284178775372,-0.634017368947,0.288976782611,0.553342952324,-0.390050426107,-0.483250967031,-0.425279758981,0.294274827942,0.48748109338,0.516972003515
ehn,-0.0994358443381,-0.0898843780709,-0.0108617914245,0.000264719724944,0.0105831556046,-0.0547663589506,-0.027018143872,-0.0160017188934,-0.028021105145,-0.0140244746466,0.0392724173533,0.0586138537233,-0.0857513014868,0.05251599828,-0.0643048247873,-0.00610605366041,0.0117762560758,0.0790945935533,-0.0234540638682,0.112667180379,0.021914417558,0.0599699302956,-0.00976675090055,-0.0470790064529,0.00534097911232
<,-0.0359107367869,-0.0374064079924,-0.0969638885714,-0.00500051754631,0.00470373235117,-0.0356956342845,-0.021003352564,0.0166673838904,-0.00180460772866,-0.0176712315994,0.0126906572522,0.115617684119,-0.0610747726375,0.029054277708,-0.0314271643447,-0.0054081314591,0.00820312741518,0.0563431402018,0.0397691645047,0.114378213386,-0.00859121061293,0.0349575214899,-0.0400807196313,-0.00487856689545,-0.0104835561094
>,-0.00570756021482,-0.0465417946615,-0.118884284329,-0.0181818276163,-0.0346045863864,-0.0177584631915,-0.0419634297083,0.015966031284,-0.00766119662081,-0.0208199046747,0.0126545019774,0.107119993224,-0.0638985580606,0.0289830911289,-0.00201372724174,-0.0177370233435,0.0183516761827,0.0688363902931,-0.00630937191465,0.116988809206,0.0248329271646,0.0359041709366,-0.0276521200969,-0.0032504231191,0.0227007162824
ng,-0.694517739355,-0.342676421538,-0.364489652874,0.0328126073798,0.34466111809,-0.325861621846,0.61755980769,0.351552708747,0.525051616479,0.484484107145,-0.384538415161,0.187583365321,-0.300337048705,0.470981438421,-0.610585372332,0.368836195394,0.457087180935,0.245099763674,-0.232829547087,0.000440728619981,0.319362479801,0.494763896129,-0.414566443023,-0.40811679223,0.265702403284
dh,-0.0792619590491,0.420033214089,-0.0688489169056,0.44336730778,0.591398342147,0.567243717801,0.624832880079,-0.165360237143,-0.498923161964,-0.449923785941,-0.527426779112,-0.59020199148,-0.378018161162,-0.557591593531,-0.213959167189,0.456139369477,-0.469940590119,-0.399125684206,0.440452133274,-0.392492606645,0.19409164703,0.5397183278,-0.400792400348,-0.515203764145,-0.379118918146
uhn,-0.0149172437938,-0.0260221243082,-0.111679238767,-0.00635907502978,-0.0161448990296,-0.00796130428335,-0.0259559464602,0.0145499038747,0.00285630605829,-0.0211759411435,-0.012871800039,0.113185437438,-0.0559877868692,0.0329724028373,-0.0273235028013,-0.011390326943,0.0283832345245,0.0633831931811,0.0217580929164,0.104523099187,0.00415158110771,0.0389154966366,-0.0221611165438,-0.016057743043,0.00115914586227
aon,-0.0389338445081,-0.0408388080221,-0.0706487831209,-0.00380817887385,0.00742484816887,-0.0366526622064,-0.0336025389931,0.0123191384286,-0.0104587819776,-0.01477211582,0.0236790361115,0.0809929589448,-0.0674020158059,0.0497166736506,-0.0200551075943,-0.0133601387751,0.0224468669667,0.0787428798549,0.0159497178013,0.119931383315,0.0161190004938,0.0258810398437,-0.002366654289,0.00259479999931,0.00334149471889
aen,-0.03402056905,-0.0637732855453,-0.05866008258,-0.0252130018628,0.0443943843583,-0.0445985187936,-0.0890509004382,0.0116160902194,-0.0549756427382,0.0234900833663,0.0430491156647,0.0429175123693,-0.08607697175,0.0657334304419,0.0184731291151,-0.0187245649191,-0.0191736206442,0.101871332616,-0.0200684195601,0.187347561943,0.030635633372,-0.0106411832357,0.0327394121149,0.00551710216976,0.0569477192651
awn,-0.0109776021975,-0.0277107078185,-0.118879139319,-0.00695990051557,-0.0235596481466,-0.0077633596802,-0.0198172898651,0.0104801437466,-0.0024325366587,-0.0152375875351,-0.0227245072665,0.110067931,-0.0662685397174,0.038359774924,-0.0277725616912,-0.0114871909467,0.0353233280264,0.0661510387032,0.0241181013299,0.0977130329352,3.46422659009e-05,0.0330184341611,-0.0175232894407,-0.0132075874286,-0.00386580697378
hh,0.353803779279,-0.499687627691,0.417293955759,0.487253629304,0.452757521574,-0.58853131619,0.146199733732,-0.392311632411,0.360747728138,-0.348448609534,0.338950810011,0.602621611134,0.47159042764,-0.453628459073,-0.0152742519348,0.0379213045838,-0.182461143781,-0.277841490781,0.580198888511,0.424972357666,0.618730755332,0.651330800027,-0.337685495153,0.364661210265,-0.537977263312
jh,0.256240191687,-0.390523599868,-0.526194224464,0.145686372517,-0.21092458597,-0.357199293515,-0.25268940761,-0.459021561599,0.0382945378841,-0.208196386259,-0.437466564878,0.308662532724,-0.11635915883,0.265456942521,-0.0417316272224,0.103276874386,-0.00815704675589,0.0796049942711,0.344379679166,0.187177746382,-0.120504225491,-0.143068847733,-0.32044250528,-0.131594608289,-0.127286186767
ahl,-0.0149172437938,-0.0260221243082,-0.111679238767,-0.00635907502978,-0.0161448990296,-0.00796130428335,-0.0259559464602,0.0145499038747,0.00285630605829,-0.0211759411435,-0.012871800039,0.113185437438,-0.0559877868692,0.0329724028373,-0.0273235028013,-0.011390326943,0.0283832345245,0.0633831931811,0.0217580929164,0.104523099187,0.00415158110771,0.0389154966366,-0.0221611165438,-0.016057743043,0.00115914586227
dx,-0.236391688045,0.266957387801,0.0592195578556,0.605115647535,-0.499298981932,0.381988228657,0.60196782077,-0.453677491842,-0.352388102515,0.300097692772,-0.437859969829,0.703356254727,-0.446226467262,0.270675928247,0.385759969906,0.365829760075,0.607327308349,-0.371146586522,0.495001202385,-0.482401818761,0.409457038737,-0.531362254923,0.0909137012823,0.482729532718,-0.545166294732
own,-0.130781987281,-0.0760250884456,-0.0355071791879,-0.033265330374,0.0596331831721,-0.0985100428317,-0.0860328725915,0.0107214582115,0.00354498400081,0.070637523205,0.119088650886,0.0258709586738,-0.104891375834,0.087653057152,0.0210099430879,-0.0507750329816,0.0223243233737,0.135098901319,-0.0778212014238,0.164038849442,-0.0125073399501,0.00572548266589,0.0276566899334,0.0366130792369,0.0330381435846
em,-0.00470065679601,0.146351746721,-0.00526675423016,-0.00555413779724,0.345298532689,-0.390137969775,-0.000848505965071,-0.0826854653852,-0.144699109262,-0.154173110602,0.203316013367,0.308813702261,-0.270088265592,-0.501576509185,0.125089123091,0.0596168234787,-0.254769065455,-0.129368200813,-0.0392141626581,0.406988096123,0.263177074557,-0.167562175411,-0.291493448006,0.377645570573,0.128715820706
iyih,-0.0149172437938,-0.0260221243082,-0.111679238767,-0.00635907502978,-0.0161448990296,-0.00796130428335,-0.0259559464602,0.0145499038747,0.00285630605829,-0.0211759411435,-0.012871800039,0.113185437438,-0.0559877868692,0.0329724028373,-0.0273235028013,-0.011390326943,0.0283832345245,0.0633831931811,0.0217580929164,0.104523099187,0.00415158110771,0.0389154966366,-0.0221611165438,-0.016057743043,0.00115914586227
b,0.508811826455,0.26856546837,-0.150352715041,-0.100139815079,-0.383058740268,0.434506004434,0.637783603516,-0.100349862094,-0.115610539021,-0.666910690644,0.579114505304,0.572593540072,0.295570586437,0.414767760112,-0.38983018223,-0.482312246933,0.522197305805,0.558887952516,-0.496960312068,0.653911820108,0.542178887262,-0.169199798682,-0.593224484212,-0.39101162401,-0.49937989481
d,0.242506927777,-0.30208221192,-0.526317177233,0.446511063696,-0.594624643956,0.495072808478,-0.468977345716,0.210427607046,0.602113343372,0.39429592556,0.658262517185,-0.0873782699548,-0.572046297613,-0.28048030854,-0.559540047048,-0.143183441823,-0.317441503431,0.595872538692,0.39268912645,-0.459952783857,0.475659568867,-0.540364389421,-0.43956227469,-0.244420357051,-0.67043265589
g,-0.557396905547,-0.542082773919,-0.527990519763,-0.444543736009,-0.385347767467,0.361115133701,-0.481332455228,-0.526719630831,-0.425213445539,-0.317693848855,-0.518394615481,-0.112776382978,0.281509745089,-0.287167570805,-0.390851017454,-0.448730448212,0.403159711643,-0.473419117654,-0.227286681156,0.447622963089,-0.107847695146,-0.413023822476,-0.311760159139,-0.480699460515,-0.401453202668
f,-0.605335687822,-0.490537481444,-0.485313233952,0.423380377149,-0.4674806219,0.490161932232,-0.479469517567,0.224521367787,0.173745487265,-0.404577559509,0.306651529535,0.370680400305,-0.00795967721469,-0.555012766209,0.397095822811,0.0757208527887,0.581866966565,-0.0682803067,0.657514308379,0.257092628794,-0.288215923441,0.575968070597,0.499207434656,0.0202195949022,0.553212782311
h,-0.011903345661,-0.0203470867248,-0.110592157245,-0.00876439892181,-0.0155640010682,-0.008717784906,-0.0283319646278,0.0148731585625,0.000136799414916,-0.027044193857,-0.015919174083,0.1153093731,-0.0568730216722,0.0310283179495,-0.0289961462746,-0.0124181016097,0.0224634178056,0.0630926883232,0.0217097265612,0.104159307051,0.000999068748558,0.0397444053996,-0.0185504561877,-0.0206872356543,-0.00107151808298
k,0.365471053649,-0.433430166658,-0.359485909218,-0.35265462786,-0.560723421716,-0.459916191784,-0.133337660498,0.676704546771,0.383991330657,-0.580735779034,-0.159784840902,0.540531388764,0.378745442968,0.302421682931,-0.420597383888,0.537272012203,0.209437744898,-0.485864726715,0.711667944704,0.426611557557,0.546892657318,-0.644885378395,0.372016165698,-0.662925848225,0.524765269077
iyn,-0.0194483768729,-0.0216381644389,-0.0994430479416,-0.00446294576841,-0.0168027924321,-0.0266196118284,-0.0365965618863,0.00508928338246,-0.00208411258734,-0.022552879032,0.00223802056337,0.102429316897,-0.060314936457,0.0390132118557,-0.0206324937854,-0.0228349767906,0.0130564854287,0.057694935031,0.00176693859384,0.103938833825,0.0211175246409,0.0413582528958,-0.00665242130467,-0.0246825277699,0.00812118549083
m,0.616671889919,0.600128135549,-0.580241068521,-0.460031526628,-0.196187399478,0.567994442005,-0.386618476157,-0.155811766221,0.245402512013,0.156399458645,0.466626650784,-0.517283270407,-0.481495927174,-0.656870381672,-0.516445985293,-0.566941361245,0.407408525673,-0.565273364794,-0.372219176154,0.438981864778,-0.471636735754,0.572329006975,-0.41282426021,0.392671087485,0.393744912053
l,0.289765564298,-0.0136701085218,0.407473540397,-0.441033845953,0.612704001223,0.0293020351176,0.392889975052,0.325464897647,0.147896540294,-0.603115281723,-0.705036915847,-0.372400919628,0.532188984001,0.630442229063,0.350477154217,-0.312242739602,0.614516728,0.157398045801,0.630939355774,0.114675541086,-0.572060530505,-0.303108098224,-0.715139457613,0.604444810986,-0.117688460661
o,-0.0149172437938,-0.0260221243082,-0.111679238767,-0.00635907502978,-0.0161448990296,-0.00796130428335,-0.0259559464602,0.0145499038747,0.00285630605829,-0.0211759411435,-0.012871800039,0.113185437438,-0.0559877868692,0.0329724028373,-0.0273235028013,-0.011390326943,0.0283832345245,0.0633831931811,0.0217580929164,0.104523099187,0.00415158110771,0.0389154966366,-0.0221611165438,-0.016057743043,0.00115914586227
n,-0.551095244506,0.0776362733433,-0.617753007591,-0.515151513946,-0.527397337075,0.496794061798,-0.0285735707835,0.390208861454,0.518178685375,0.386121658095,-0.36255284643,-0.501481881823,0.57622313058,0.234655684362,0.396968370984,0.410424287869,-0.654571785148,0.437143434656,0.358790842723,0.681329368465,0.54444266893,0.559021781189,-0.721666064473,0.485199692489,-0.65304307048
p,0.433865049545,-0.481260801861,-0.457179210949,0.62004353958,-0.581335124445,0.0233694006767,-0.303696255101,0.423093570212,-0.424877118034,-0.534214855453,-0.599085835006,0.43396127944,0.505341376776,-0.295595648688,0.332580691199,0.226353467052,0.582847042206,0.422221391704,-0.632168845895,0.469168720882,0.387951716141,0.572448711471,-0.332763522741,0.371113349272,-0.0148052351331
s,0.226410130893,0.277617255049,-0.739468327557,-0.440799209396,0.540978749637,0.72647521824,-0.41765249949,-0.162469346621,-0.778531666999,0.592081674352,0.415281660188,0.615953564487,0.582525727131,0.366401356027,-0.637540817914,0.647119226785,0.574873761895,0.3833272658,0.472934808252,-0.182508274995,0.517255928854,0.4629937326,0.404585462988,-0.151255969894,0.285703342621
sh,0.230135329339,-0.553890755968,-0.610878986555,0.374058464972,-0.516387791233,0.0737507361349,0.389220550568,0.14396653729,-0.551169195897,0.212002088253,0.067041510462,0.594350919285,-0.340953529785,0.488164361006,-0.475489477599,-0.11400040864,-0.363883158347,-0.299204157247,0.12771338437,0.521345958578,-0.353993340211,0.312472731895,0.152076581444,0.227419245187,-0.160277687275
uh,-0.473071306262,-0.221566356924,0.0932297834083,0.543135040094,0.222244621242,0.258502425844,0.282655818578,0.333496638132,0.0165266700761,-0.207771227756,0.208150124167,-0.329252105331,-0.393825117031,0.0271834764559,-0.416347016166,-0.382536228813,-0.206604813909,0.581965875862,-0.449550610097,0.363477208843,-0.33713925997,0.187667833585,0.272170250646,0.158497203791,0.41864764624
oy,-0.137078403698,-0.0547102693622,0.0186279829062,0.00359359769242,0.055808373864,-0.0818632693109,-0.0947629716197,0.041872807209,-0.0272853065341,-0.00829060318008,0.091239515648,0.00229464064936,-0.101944587581,0.1407160834,-0.0287145612072,-0.0740620991494,0.00416295807783,0.0862984116596,-0.0444592230298,0.157560481978,-0.0212703442869,0.00272732762389,0.010538589254,0.0229153717881,0.0288262545427
v,0.641439673283,-0.444415487505,-0.757449603654,-0.351126686253,0.392074328294,-0.135955022778,0.166880123015,0.252951736712,0.528739342626,0.281824867925,-0.147781663259,0.436991331206,-0.466615381171,-0.457325178526,0.558336368134,0.391904058433,0.48425503621,0.499871016297,-0.380463484603,-0.481973078425,-0.500413102493,0.40503241557,-0.183322414263,0.182501643338,-0.564306103062
y,0.329252058629,-0.535083733759,0.424704042938,-0.4187990339,-0.306573828999,0.510805915887,0.257641791631,-0.511941152279,0.159470141129,-0.662967950466,0.454802804676,0.555243793016,-0.35321501544,0.343575173352,-0.297844144025,0.324364602066,-0.610250296596,-0.37922443859,0.304827440877,-0.0965059847281,-0.623821813051,0.519399605824,0.372422461642,-0.347941785544,-0.46735570457
ihn,-0.0922474168078,-0.0583838967917,-0.0262599542463,-0.000851178584526,0.0470969383266,-0.0517790572251,-0.033897010759,0.00344242973081,-0.0567779553438,0.034920549169,0.058901873773,0.0289290498421,-0.106842497184,0.0801501671294,-0.0271122226649,-0.00922988606646,-0.0357555177032,0.102197352657,-0.0354481327855,0.148402302061,0.0111996490824,0.0244528441021,0.0319022443074,-0.029670337221,0.0375099422555
z,-0.0481370730609,0.363284446582,-0.710616419502,-0.422570724837,-0.622792285027,-0.479396361643,0.58813087534,-0.535892765142,0.515473399078,0.196353540462,0.460506652305,-0.363583878111,0.37646209308,0.433978262874,0.345825582128,-0.517429011502,0.561275541431,-0.114630732492,0.487672925372,-0.541354036024,-0.348398440476,0.595985561746,-0.0644066925675,-0.490087963125,0.232262335934
uw,-0.013948705196,0.607540359257,-0.432379600704,0.558368263557,0.609525446681,0.0415052093599,0.216982375509,-0.221652110409,-0.362189179616,0.381358862996,-0.043227609873,0.426933656443,0.261864730507,-0.0407982624342,0.422739936177,-0.512970739719,-0.460852300874,0.531376310642,-0.0734829062954,0.684051048318,-0.526780071132,-0.456915121298,0.492618194564,-0.208266067526,-0.548975287293
uwn,-0.0175722986965,-0.0234709340672,-0.113250028562,-0.0032947441006,-0.0113917218386,-0.0107446457687,-0.0221041425928,0.015565979491,0.00123227307633,-0.0188562221481,-0.00897312659171,0.114161661294,-0.0566432724587,0.0347661177339,-0.0310079233279,-0.0138851123016,0.0242674966964,0.0653305691318,0.0156713329849,0.106128726254,-0.000371676839144,0.0369806002761,-0.0208454956117,-0.0139290126518,-0.00461544328291