iy,-0.154474939869,0.658567179478,0.314489088762,-0.558886807942,0.528667489647,-0.687241175194,0.309855134662,0.875802827005,-0.549030178521,0.700926447475,0.552947517299,0.452775557865,0.304625653647,0.880771572189,0.651297586281,0.277779322814,0.206572017926,-0.265606481245,0.836662274083,-0.172658892066
el,-0.586101149659,-0.700757589366,-0.513241090886,-0.214927020324,-0.563636703814,-0.538085552296,0.436330869603,-0.282681313782,0.652905369733,0.349074406819,0.531428344217,-0.00755729677368,-0.376960776414,0.489553189364,0.490707228848,0.481856847128,0.229410920828,-0.717855678076,0.166658746144,0.072054514078
aa,0.242882649774,0.762911627135,0.630812602372,-0.472325055501,-0.53035404015,0.175856786285,0.538278908572,-0.753085573233,-0.404441895063,0.175373106227,0.151140001902,0.36488756835,0.319523098136,-0.442824798729,-0.309169605667,-0.780652867499,-0.0473374718601,-0.250067440934,0.671538160503,0.873771507067
ch,0.0506397627185,-0.539906384994,-0.152346012679,0.565269102761,0.485055298185,0.23221099592,-0.193334528555,0.526970764607,0.340605933903,-0.331013056656,-0.356251172813,0.488575226719,-0.585202240989,0.602296806319,0.185694971558,0.140522696682,0.51149101926,-0.748961981977,-0.591646818242,-0.434567371716
ae,0.69296738931,0.60506026288,-0.346621603535,0.505072303898,0.476478861077,-0.837307645052,-0.31559141413,-0.262665981377,0.180770005303,-0.395528685894,-0.32526744868,-0.551686371117,-0.764708487825,-0.441084064783,-0.838983922918,-0.715355239462,0.109661735881,-0.00884223665503,0.119436399502,0.0839104518664
eh,-0.549635283171,0.349883042074,0.601483426142,-0.0858410682463,-0.817285841613,-0.748772878467,0.741209390611,-0.57770055944,0.289981734045,-0.40627389023,-0.0110862637513,-0.350562108441,0.0857126083981,-0.81274930109,0.911692869023,-0.689412327165,0.388005654012,0.582272431232,-0.235011244625,-0.145869049345
ah,0.517305204587,0.726131725375,-0.811884348268,0.165291155144,0.432905922297,0.10675246414,0.0203209362359,-0.899814030651,-0.819196423113,0.413412121871,0.857194350266,0.256455362729,0.964303494983,-0.667688601296,0.262528928862,0.223335071559,-0.594065039903,0.0903794215102,0.399326990952,0.278001973283
ao,0.158276729963,-0.0287752664532,-0.118596004788,0.0144092925294,-0.0366282417268,-0.0308226733578,0.100583252206,-0.0367396920989,0.0711293676318,0.00657005280652,-0.153759259151,0.134920221032,-0.0314713948337,0.0216007383467,-0.054355178201,0.0710054730624,-0.0871100048112,-0.0634118146374,0.0411750913434,-0.116495366185
ih,0.644609355665,-0.605456157683,0.579221811117,0.606980409241,-0.588727690148,-0.640261636246,-0.23909460401,0.624407344727,-0.25481015338,-0.391900825741,0.818568261434,-0.472050644056,0.386084779246,0.111709796744,-0.607917683933,-0.601933667326,-0.262473727243,-0.676537725148,0.301596503167,0.707252603995
en,0.12218617022,-0.643826985107,-0.55659735123,-0.237653903183,-0.152644051007,0.316758342595,0.705672003419,-0.27239130246,0.552185546619,0.388742867353,0.305538902401,0.300051990166,0.272230608295,-0.449312415165,-0.585604610006,-0.406270253698,-0.60686797644,-0.596178563398,-0.296248515098,0.221440349024
ey,-0.636889834828,-0.604681176383,-0.829787456651,0.390619683182,0.278963182006,-0.0756021757207,-0.237992426602,-0.0746842798172,0.260279836107,-0.54093114381,0.463740267206,0.363291773281,0.816890196705,0.596848106306,0.373045917798,-0.807605884893,0.431962094705,0.0649218423777,0.443237629488,0.103901727868
aw,-0.0775382016837,-0.233657231379,-0.378554805646,-0.454113610062,-0.639524623229,-0.177432006883,-0.581719492623,-0.583630399522,0.877805612632,-0.603243974508,0.645313595398,0.536899279691,-0.291419127756,-0.0915209183219,-0.723492731285,-0.207192122393,-0.17177011044,0.112080509453,0.561493377473,0.0822914076133
ay,-0.796107021105,0.860732817138,-0.655872736372,0.0818453653936,0.615753497697,-0.577314139452,-0.846762802559,-0.784173291313,0.38937953126,0.183444298302,-0.101272790976,-0.0160113284108,-0.453047024948,-0.0639930162289,0.200550713018,0.465965728246,0.821352037972,0.736578400563,0.459830212586,-0.208017264475
zh,0.24905889936,-0.362241296083,-0.175954297111,0.115619017796,0.101199025962,0.087684349449,0.317763895985,0.145194199657,-0.0390307505642,-0.0807937246698,-0.321364734047,0.127425462364,-0.203223408307,0.0312402462951,0.140064824516,0.301202878948,-0.231104921866,-0.10510170782,-0.229371562989,-0.169103832068
er,0.445401526304,0.322087911131,-0.554127770488,-0.333189557396,-0.162080537913,-0.902494648022,-0.307759304808,-0.0327145645693,0.738507837532,-0.448476292571,0.459426319345,0.0467025280677,-0.710755305288,0.200765838978,0.694559346004,0.673164668296,-0.618105126349,-0.902763233188,-0.365026193705,0.654785040295
#,-0.757898709157,0.680236272367,-0.542895149504,-0.688540009741,-0.38243500764,-0.748483329185,0.780860029066,0.556414942711,-0.866135715298,-0.884453435362,-0.977157889369,-0.685900234006,0.886001038488,-0.662745827038,-0.781488598668,0.854749123524,-0.714982919563,-1.07216611966,-0.961826115475,-1.0746779366
ng,0.00673905571949,-0.27305801501,-0.711619517007,0.744657216591,-0.446933949948,0.373016847948,0.815815319038,-0.760065313446,0.431363445526,0.622280630043,-0.62967304071,-0.653523562383,-0.228881829605,0.768211862934,0.428020454678,-0.524846754355,-0.559576017289,-0.582623756762,-0.861544751888,-0.160917643579
r,0.697723186933,-0.439097188892,-0.738173009115,-0.61304575492,0.179264945736,-0.618713495069,0.243269046914,0.0994225320938,0.43438886941,0.49968632689,-0.998315255383,0.731868751325,-0.170830106909,-0.573152707028,0.539810439776,0.986299895541,-0.812876189496,-0.0925380509428,0.70439871408,0.573632229689
th,-0.744307991183,0.23305108587,0.445251196937,0.106445085215,0.659130417641,0.73061142644,0.169461410831,0.622061405358,-0.149816738746,-0.201867034496,-0.634701719032,0.498485001647,-0.554768306188,0.296864130024,0.452576524448,-0.447814208122,-0.311359347304,0.361514606615,-0.201047923909,-0.56523070316
t,-0.47592670128,-0.557410538147,0.153455128788,0.36427338035,-0.338856382247,0.313396230364,-0.27005550277,0.720986548209,0.568252580852,0.189773431994,0.742171948567,-0.276037492181,-0.662191659645,0.22983825874,-0.366067384089,0.674523888379,-0.842423008252,0.786152606455,-0.844627273098,-0.626581954527
<,0.125144321464,-0.0341601881041,-0.350400266987,-0.302250690469,-0.0426214218895,-0.23579949887,0.363450908493,0.0967654715666,-0.313287607503,-0.224933111372,-0.500113942311,-0.189749689363,0.175340461211,0.0443846698489,-0.147211664419,0.404864882406,-0.436489587982,-0.217521965077,-0.026610513706,-0.398594959705
>,0.190808580792,-0.138467935024,-0.230878003928,-0.225095018402,-0.206806408268,0.0246460102248,0.273814818422,0.233176384372,-0.225836941539,-0.00624866283523,-0.308948937445,-0.20740573376,-0.0600821117116,-0.345455768785,-0.168830417261,0.194762963873,-0.222786702559,-0.214731101479,-0.0460861774275,-0.332424010601
w,0.441048995284,-0.912074195224,0.751647888425,-0.612662688075,0.38117934642,-0.166794091264,0.392385219291,-0.574303717065,-0.062287963985,-0.5875489633,-0.810748716371,0.448724772069,-0.818991739117,0.228697523502,-0.64513109701,0.012392680919,0.397356787142,-0.546322009456,0.532959005494,-0.776928249151
dh,0.732073520342,0.473144306402,0.789699023227,-0.275983154039,-0.679655290955,-0.620594964127,-0.344031550205,-0.8614228572,0.539014988681,0.657702950084,-0.90045641179,0.794148082759,0.448200843495,0.88418807127,-0.378280751381,0.647750858588,-0.0401072174155,0.341453271918,-0.378891252524,-0.456876657398
y,0.700551747389,-0.63742698709,-0.00223458618152,0.323771359135,0.435093141004,0.179586001685,0.768172929732,-0.300041312183,0.634169192487,-0.791631200205,0.525113180857,0.51884857587,0.660980128109,0.661743668149,0.110304297801,0.64612584266,-0.65253076624,-0.179960624902,0.403221735444,-0.756892151449
hh,0.778532615357,0.443538417989,0.250380212952,0.591012983664,-0.298429507934,0.830061406913,-0.584426456486,-0.0194205893161,0.637904710157,0.0881465383276,-0.727106395024,-0.291310365683,0.247761230889,-0.149531293858,-0.289617278066,0.610321597053,0.490853313668,-0.630438318905,0.849344748591,-0.769068162982
jh,0.200939428563,-0.411520519413,-0.272152181624,0.302049778895,-0.732392556369,0.286318975402,0.659099913683,-0.494710755858,-0.343140872825,0.415281853623,0.184559277715,0.338047718738,-0.479415568738,-0.79144270373,0.177769214948,0.85341297559,0.256204726097,0.525747283224,-0.34166440078,-0.323759506993
em,0.285939579814,0.489722344057,-0.273252371517,-0.0856251294962,0.164916401645,0.116232024928,0.474767590592,-0.114638221198,0.521460369428,-0.146881823456,-0.561392388027,0.393598018479,-0.64470171772,0.368412851019,0.422133634924,-0.375894938028,-0.00781030974619,-0.334530046493,0.590630070344,-0.197521039812
b,0.490479374972,-0.352696819712,0.236710110121,-0.675396778468,-0.440312503245,0.855897221473,-0.590163297046,-0.675528766403,0.0824738043032,-0.324323576826,-0.7539441356,-0.723227807173,-0.416543380937,-0.380675786005,-0.160181753311,-0.35728490569,-0.754009744787,0.184971856821,-0.616820555896,-0.459474413832
d,-0.0815937346537,0.530639057414,0.664185048181,0.606577668769,0.127813956559,0.768439114797,0.872652287631,-0.000138464704083,-0.101337029426,0.204841250401,-0.0365732373124,-0.33719734812,-0.326853064173,0.539046613665,-0.695911365323,1.01749274949,-0.48418981932,0.245466890141,0.459206449191,0.367865430386
g,0.129468158337,-0.283721520834,-0.172487142489,0.729820442966,-0.291134318841,0.582204964496,0.625466985977,-0.0818032404882,-0.564829956677,0.323036760295,-1.03663325182,0.555085756404,0.428718681731,-0.444652820247,-0.122100430752,-0.298498599722,0.600829179144,0.163373393985,0.125308335867,-0.565037013751
f,0.77440349965,-0.100767796172,-0.6760775395,0.170330464772,0.00581200839173,0.444207569478,0.153951263594,0.516683601979,-0.350881358435,-0.752314859192,-0.552942037379,0.709189692279,-0.0434084121974,0.79458257676,-0.749159548194,-0.695713038361,-0.852857272573,0.754208750511,-0.181321611473,-0.481322335087
h,0.265342228824,-0.0629812757272,0.0174412168529,0.0574274454384,-0.0932049196665,-0.00522027722721,0.0805738483332,-0.0290173658687,0.0755985560796,0.0190778888292,-0.269685775204,0.121140342481,-0.0674265128819,0.0340756750626,-0.126385542469,0.12364818311,-0.089442156064,-0.147860595625,0.0751509238071,-0.258808675205
k,0.856115618445,0.957034748932,-0.261518209292,0.766838607309,0.109116546239,0.12953290359,-0.492477953381,0.231256660408,-0.339419255542,-0.263787061374,-0.360883881146,0.826077417198,-0.22865430286,-0.537429999553,0.324728988042,0.614727799917,-0.676775039704,0.244866332488,-0.872952351012,-0.478762664869
m,0.482066537046,-0.368963597303,-0.880270937711,0.300713251749,-0.528376299109,-0.866049937852,0.824284212247,0.275300377411,-0.756204795725,0.0386716489157,-0.375185382224,0.0754462860381,-0.150463345532,0.787251527682,-0.855668268134,0.668805362046,0.720161091929,0.763539749452,0.563196980914,-0.455749605292
l,-0.466415959946,-0.599269937603,-0.36028915494,-0.0527413575611,-0.403619996086,0.0169319321677,0.489930542626,0.464806710916,0.806957352139,0.270217580137,-0.872698454596,-0.43294922567,0.270342288284,-0.186180268305,0.464811720912,0.271159603847,-0.391886598937,0.926719805004,0.808525702746,-0.610428729174
n,0.328928043706,-0.786733366247,-0.541915807662,0.793872296094,0.947157814144,0.254160716846,-0.736907942793,0.689367341551,-0.0848574964189,0.616389020983,-0.954746068262,-0.788433593679,0.819532584521,0.092235606556,-0.418581239544,-0.521545304977,-0.744529347813,0.112474702457,-0.128595638363,-0.0427380249305
p,0.871428719765,-0.501096287248,0.249794052014,-0.436524566213,-0.6625711543,0.272420895118,-0.382225141168,0.51624881488,-0.940048091437,0.0720866360304,-0.607799979395,0.84791244067,0.270073349881,0.475975802344,0.660529435099,-0.328510349237,-0.325575159275,-0.373385759954,-0.424809296891,0.110392555187
s,-0.42960364045,-0.859750546159,-0.689870445724,0.780406504132,-0.41930415639,-0.698621698127,-0.596222066235,-0.525018878398,-0.652111189273,0.717248738132,-0.55670543759,0.96304664154,-0.590130172668,-0.359096771812,-0.449827820537,-0.389487628162,-0.570184656857,-0.541397026619,0.317128836768,-0.766531500543
sh,0.677094855001,-0.4464317372,0.66279575681,0.540423802344,-0.203250609936,-0.209191990415,0.413378034585,-0.169486006551,-0.687839746401,0.389071768053,-0.101666918199,-0.145259380612,-0.700892822593,-0.0127804139073,0.371773054194,0.78046024744,-0.393342347438,-0.619025892006,-0.323154448933,-0.187110145384
uh,-0.378272346898,-0.557947232294,0.516711429146,-0.190576512264,0.427943751139,-0.525910237832,-0.161071534272,-0.5903986574,0.21656942722,0.64460028361,-0.173604916222,-0.331588675037,0.536955698754,-0.479610816883,0.486394538012,-0.260314336895,0.0126653695634,-0.652691007659,0.309162465697,0.574289319984
oy,0.0963253277511,0.0387378292711,-0.263240801885,-0.0820044389934,-0.155725987161,-0.0364434890139,0.0616825491204,0.154960300658,0.393542754755,0.17698461047,0.164506313376,0.0981964143476,0.125978583751,-0.0812550915104,0.0589549296271,0.276397027635,-0.0732170459384,0.159581665502,0.136732555465,0.262462795433
v,0.354305574465,-0.538281001484,-0.596671500775,-0.221566241303,0.0822582495823,0.997831695403,-0.120010128914,-0.284130680585,-0.102137841743,-0.381162822073,-0.609466034791,0.668207024063,0.373079110562,0.253136519442,-0.134810669834,0.910772759209,0.906734434031,0.373006153565,-0.428078761492,0.673325343346
ow,0.0459042172676,0.659486095153,0.0550661199612,-0.372734406682,-0.459622810535,0.479455435577,0.540655825373,0.463584175826,0.509703216887,-0.569008161731,0.295271986146,0.404695719964,-0.120545921568,0.581164956018,-0.21795052947,-0.802902913709,0.0893793747769,0.906578909799,0.0168741718822,0.773656768211
z,0.362647221802,0.281919448138,-0.64686279446,-0.800376898295,0.764235399242,0.463162468874,-0.347848782074,0.376577910858,0.0284905461857,0.792766352883,-0.313418590865,-0.47588223943,-0.482900845665,0.476236000359,-0.699385925152,0.690833669292,-0.228919289414,-0.765574396029,-0.459808588594,0.579620044324
uw,0.130156825886,0.584891810525,-0.154367532286,-0.407587132503,0.706203239259,0.108847038572,0.563690599935,0.652249519407,0.690006894065,0.0874582475054,0.657352708787,0.817131002209,-0.501332562262,-0.706873519714,-0.28006838544,-0.587311875427,0.715986663116,-0.469618119075,-0.530819133833,-0.630336556521