iy,0.0763870474824,0.161238656458,0.352305466095,0.0520786095206,-0.320173512106,-0.0415701386226,-0.327271462075,0.105047962941,0.506350853889,0.569691409569,0.556989366658,0.316824430174,-0.0494683647833,-0.270941004182,0.665499362731,0.428721398858,-0.366898522899,-0.200367014486,-0.4239664639,-0.485705333535,-0.575325947785,0.414811007654,-0.5595805834,-0.129997727639,-0.576423170924,0.28003076823,0.57048074323,0.0893850225,0.652144400429,-0.417125518383
aa,0.183771138239,-0.103258637691,-0.143960377132,-0.273468413376,0.604369629243,0.62306861569,-0.191845984465,-0.0398672349441,-0.563154033926,-0.064457195957,-0.459139648277,-0.208133352402,-0.595911566196,0.378552651609,-0.18183279573,0.440199974345,-0.381356554612,-0.608189001762,0.386535400121,-0.572007361132,-0.312152890648,0.475483784439,-0.0613274544578,-0.592554331299,-0.366511472668,0.191503075,0.603869498321,-0.245353350954,0.48266213206,0.412770645489
en,0.167601736901,0.33163247467,0.180422720028,0.180131567363,-0.148488460983,-0.274089750235,-0.41024544446,0.0123567151752,0.166401427329,0.128584025511,-0.213196722433,0.377150857741,-0.431502065496,-0.0425345135305,0.384227689509,0.15723806597,0.229610371738,-0.46760436238,-0.118924696288,0.334681531183,0.232508827646,0.585590193145,-0.0049232387464,0.257736272357,0.296847815914,-0.0244179115545,-0.3577064789,0.276939655352,0.412908511265,0.503239607773
ae,0.0499949928584,-0.194393914895,0.462830528416,-0.261362462519,-0.577452752601,0.550998369265,-0.395486797402,0.342175245386,-0.628456788905,0.388034778838,-0.457235100845,0.427698266104,-0.438114764852,0.297540441258,0.58703558731,0.439092239815,-0.395388891112,-0.509600488729,0.348576631706,-0.520190802106,-0.534155472848,0.457960770257,0.413218677942,0.443826083301,-0.522070189771,-0.260532550006,0.271972243792,-0.576268188243,-0.52094830043,-0.258840113533
eh,0.598031201719,0.358241270435,0.355550612829,-0.543026296833,0.398961161481,0.24009993423,-0.336175586338,0.522439489962,-0.478979963975,0.539805051782,-0.0581236830332,-0.341573919102,-0.613574855321,0.093739736361,0.159738189496,0.505806724294,-0.327934092445,-0.62888380765,0.172121057485,-0.576872026678,-0.727772477115,0.457301062561,-0.199784077942,0.2856604733,-0.517305632823,0.187990130724,-0.327168009466,-0.501096210386,0.0380403089763,0.459199418514
el,0.223331255522,0.283277371304,-0.195102169913,0.565253936303,0.211313870174,-0.434486796265,-0.276289999734,-0.216188278837,0.308543996608,0.373875590343,0.40562242194,0.0574839242136,-0.53237379219,0.0135145789331,0.108606129025,0.383935764711,0.15637570567,0.159940983452,0.0331666799965,-0.418252361121,-0.227757510407,0.330734341693,0.296307052868,-0.393383453826,-0.152377223635,0.125757226316,0.491912896875,0.360701119945,-0.0435122537703,-0.0252329986734
ah,0.578878138518,-0.0486733269452,0.447240603884,-0.332804235888,0.0709536155786,0.145006959168,-0.348301350991,0.164701739319,-0.37304191326,0.609262933067,-0.39314853936,-0.529153919769,-0.62781727096,0.309117500011,0.535317753603,0.029862563776,-0.376561599383,-0.24240688902,-0.49238131907,0.0163038218413,-0.372869495809,0.225470598428,0.353049950158,-0.470815012759,-0.534369741053,0.408410163259,0.495276366631,0.00334123429132,0.286286535104,0.501326992541
ahn,0.144049066259,0.111992580906,0.167484766096,0.041735949145,-0.0421163117815,-0.00461870472538,-0.32235686938,-0.0996696935611,0.0293256644849,0.231119279892,-0.0718724622173,-0.022488281061,-0.200659102994,-0.0115066486157,0.148919366413,0.209161626856,0.00757916298253,-0.341990117167,0.201352569319,-0.194616159032,-0.108286948983,-0.0444166817514,0.0554669068653,-0.0953184288995,-0.17797658804,0.210448770967,0.154270516608,0.0252215221588,0.148086117622,0.302353845134
ow,0.357072265267,0.254922281931,0.591430338218,-0.32636053455,0.544711848096,-0.310857387538,-0.422701809903,-0.00301171135977,-0.441483616045,0.181801815498,0.13257024851,0.381963119588,-0.538468821193,0.398119092641,-0.0591102543826,0.655087518554,-0.410643319447,-0.566960601046,-0.410277974227,-0.21835797982,-0.576098695822,-0.349540498472,-0.380702876769,-0.447294158704,0.370848557957,-0.27079488496,0.430745713234,-0.311794023459,0.284133845849,-0.39812732607
ao,0.571314145978,-0.522222863573,-0.527948124212,-0.495407068583,0.581895175568,0.436003987739,-0.405646971183,0.364788004772,-0.484519771316,0.452095365032,0.666662749793,-0.0099126380069,-0.460337268994,-0.0725305109234,0.0354842817674,0.567548469024,-0.602060311317,-0.5316847328,0.411482014819,0.197869430563,0.0341215393228,0.408095755441,-0.19413417328,-0.00552071759157,-0.492011224111,-0.0908465420232,0.21778668358,0.362341983234,0.549743147235,0.01987056079
w,0.550440842411,0.396763299286,-0.441086762947,-0.147131389222,0.397637397909,0.00795744592735,-0.158416194809,-0.289414476046,0.452232457373,-0.550981120038,-0.390761648472,0.265730110878,0.564794106092,0.223180050549,0.48437989812,0.417463708762,0.792069435537,0.490744712861,0.352616965222,0.495415302991,0.467418661401,-0.492566041292,-0.482852043119,0.523067805222,0.322738239635,0.0131966096724,0.374143107601,0.149014960958,-0.266561872398,-0.102559866159
ih,0.404628936414,0.0729436998211,0.11560235223,-0.529901635905,-0.493833745182,0.0560699848792,-0.154692673102,-0.0306414783842,-0.598554585886,0.827560942121,0.554235479203,0.30102922182,-0.107012103695,0.513638964233,0.454626713218,0.545222296772,-0.668347876113,-0.776858930951,0.332874521603,0.302604948636,-0.431033217834,0.642117084323,0.233420524457,-0.476794186773,-0.582414986727,0.370915692457,-0.528630653586,-0.17674545258,0.174632842789,0.614485918013
ch,-0.106287066365,0.301972686776,-0.334109319551,-0.145573296174,0.329821081799,0.013983006921,-0.435548399498,0.254324192359,0.425545937616,-0.481166346124,-0.000973215849799,-0.318034074099,0.222003361938,0.368973264239,-0.353213770597,0.212466185719,0.263129808212,0.22096385038,-0.12137469801,0.375397631158,-0.444752684028,0.327550693751,-0.394832644174,0.0330091221012,0.380076853901,0.165224631733,-0.4498998321,0.164410505535,0.295411463221,-0.218150910142
ey,0.581535452213,0.395317644158,0.334410505507,-0.338935820009,-0.467837298055,0.289858855169,-0.385658539308,0.337865956262,-0.515768935759,0.477805186904,0.332010098667,0.353133170927,0.359109081051,-0.334622493758,-0.262954136351,0.490815156395,0.428128955394,-0.493745884355,-0.415750115363,-0.4783624578,-0.553108171455,0.169785919623,0.202456673866,-0.264892642732,-0.180401814446,0.51260934513,0.530231077352,-0.216106843222,0.00939152031919,0.198494758286
aw,-0.239749289696,0.282494983154,-0.0549973733325,-0.583432539589,0.306109470234,0.187576501692,-0.369874175817,0.371052129481,0.198145768877,0.302441473447,-0.298339731653,0.505325214363,-0.336375155745,0.689074497986,0.486924724858,0.538510030269,-0.263294956453,-0.686990120952,0.103678733478,-0.442813090847,0.18273429584,0.529035040803,0.306299834525,-0.0203876836783,-0.0996767271936,0.636803059969,0.48099290521,-0.252225622611,-0.216750197627,0.104158486577
ay,0.393100231708,0.503781949531,0.665103706736,-0.0263872108066,0.314308390273,0.482871157514,-0.460543448722,0.316520256492,-0.374964108724,0.65729131157,-0.447373244262,0.130637804635,0.401458169509,-0.337206253559,0.164794723651,-0.225173181727,-0.552563824411,-0.493343358082,0.466984561087,0.253349890206,0.354142050249,0.371987281198,-0.0457297570652,-0.496270324612,-0.364199634954,-0.33845198817,0.442535395496,-0.317273783457,0.423010557635,-0.227438601985
zh,-0.30129757834,-0.131510645055,-0.0476378389819,-0.0884016932971,0.127861381132,-0.285752395056,-0.330065437092,-0.204276933145,-0.0621960908133,-0.437416244802,0.256665315431,-0.0401309417454,0.229605022072,0.0668574859696,-0.0193526977477,-0.0120405916237,0.165131398339,0.203452167791,0.0963265205481,0.0343289568749,-0.256691370652,0.303275972357,-0.0370359832331,0.136186438506,0.293414834746,0.258644913231,-0.328377640163,-0.113718968263,0.0404869317632,0.180120103668
tq,-0.447353596676,-0.673053181251,-0.490919159132,0.625338590423,0.524372225123,-0.589405424179,-0.268347134437,-0.0822923116505,-0.0948191572594,-0.213623612177,-0.352696644128,-0.499165961641,0.382438455526,0.229029083613,-0.425467991658,-0.666942813172,-0.158850732855,-0.481974161666,-0.579781735091,-0.413575501044,0.176140325993,-0.100695470473,-0.103384614163,-0.341699977625,-0.260102842281,-0.419857286933,-0.545285460025,-0.161742164726,-0.211980799338,-0.56065479813
er,0.344374162751,0.267485826656,0.0804921999067,0.178178389096,-0.361975606094,-0.428072151036,-0.316757782678,-0.586309826658,0.247265320593,0.760251983414,0.157861073534,-0.116141966956,-0.334204710456,-0.263128600973,-0.26018911331,0.485274149956,-0.498629393475,-0.335338906545,-0.0390688895833,-0.171710220844,-0.548492065667,-0.266262153805,0.422762362506,0.398662590818,-0.268135735445,-0.0951876944981,0.554876204017,0.0559834232333,-0.134867862217,0.410146940998
#,0.031226544963,0.171338219208,-0.0488442822057,-0.0176294915304,0.0101257361108,-0.0183402850648,-0.34816770632,0.00304946921895,-0.0375766013815,-0.00102848846047,0.0260114990012,-0.0552224365213,-0.083818178914,0.147373989912,0.0504169408545,0.0391087735368,0.0794538603575,-0.0674603298624,0.0480942684783,0.0402421143575,-0.0838813032558,0.124565433949,-0.0357524362526,0.0296130287489,-0.00221729098535,0.0719809646679,0.000994734041544,-0.077137418456,0.0569353401773,0.0302894963121
ayn,0.0191765753404,0.146876880668,-0.0442213183141,-0.0205210599204,-0.0256753320501,-0.00268552924137,-0.349675105498,0.0700859375428,-0.095259408034,0.137171763806,-0.00716113847333,0.0053768912953,-0.0960379634684,0.135075938975,0.00125268807111,0.123811928056,0.00503584330996,-0.154201879902,0.0731307548547,0.0765965715146,-0.119417142156,0.176988533277,-0.020823389511,0.00945642652999,-0.0235404129457,0.0819381840441,0.135268864657,-0.111358340681,0.0544123728449,0.0544462385602
eng,-0.00932159525557,0.2034941246,-0.0510847731821,-0.0661056073881,-0.00647719789036,0.0244854314923,-0.342089599693,-0.0223351574078,-0.116986201111,-0.00157556471526,0.077853773455,-0.0173350845462,-0.0505854634634,0.0364529140982,0.0218660377543,0.124616008454,0.0803454912678,-0.0452233967687,0.0375026909596,0.113707203646,-0.0442345699357,0.137312930863,0.0423822249911,0.00114960172868,-0.104740625762,-0.0223562181636,-0.0470723474134,-0.0540081669209,-0.0330608652012,0.0495318329227
aan,0.14064841236,0.193217308623,0.013416252935,0.0442819627229,0.0931018520027,0.0282544819931,-0.332583545894,-0.0383339771901,0.0136128533395,0.186202775705,-0.0276797610821,-0.0731526956197,-0.142369364277,0.0126894868935,0.0685282506907,0.219180075327,0.0913883260269,-0.301596826264,0.110437271596,-0.141251004592,-0.115916907613,0.139134389978,0.114585371419,-0.119591055813,-0.20904328212,0.183813268985,0.165099874608,-0.00122015859343,0.0700784233722,0.287234676239
eyn,0.070924051639,0.153454891826,-0.00290020878286,-0.0698660976403,-0.034510317638,0.03228116324,-0.333156317526,0.0161634274814,-0.0413706439772,0.126796048026,0.0906380312593,0.0250567336262,-0.117649401027,0.100025345619,0.0856755675678,0.137223706782,0.0416658259349,-0.197526858645,0.0862113924858,-0.0234597268831,-0.097776099802,0.188821111035,-0.00860490040715,-0.0561159683707,-0.082351827815,0.087855731343,0.0275992271472,-0.0594027461354,0.02610810044,0.0793681872429
nx,-0.400634476892,0.368492904477,0.176960611472,0.287364976433,-0.0469096840967,-0.447230034606,-0.391303450213,-0.46249090483,0.504387823785,-0.483392267607,-0.36428899977,-0.665205817793,-0.233074908196,0.23668566269,-0.0815457724913,-0.4467046544,0.669030485866,0.622882672577,0.439385559299,-0.125558034761,0.494126380416,-0.537466826564,-0.341404053696,0.142124128718,0.148940890543,-0.110290262202,-0.49902933954,-0.572170352067,-0.0628189758844,-0.465115483517
oyn,0.0484688602231,0.167540859746,-0.0432637649472,0.00721938065961,0.028308939511,0.0282660406575,-0.338753530481,-0.0148933160322,0.0150497581692,0.0800020510078,0.0443257385881,-0.0326723987166,-0.205470141147,0.142284146138,0.0241144032613,0.136020903065,0.124438102963,-0.174255326594,0.124574749255,-0.0658020308984,-0.109123811438,0.205633856432,0.0393249084558,-0.0443762351106,-0.0326319605959,0.0747170527214,0.0613659885357,-0.0619563879826,0.00973535221702,0.0641095033744
r,-0.00750589205139,0.443079484713,-0.534503635643,-0.539871648282,-0.422616783313,-0.227334191438,-0.374294948588,-0.435896922458,0.479561347461,0.496734130236,0.466203683598,-0.551515114977,-0.672897031414,0.2004084518,-0.503785797903,-0.262998642922,0.529237784983,-0.189535787986,0.394549883523,0.429546583358,0.338067689105,0.51656938032,0.248182163942,-0.280009374247,0.597193213722,-0.316639993469,0.556901874303,-0.586865188953,-0.488948561492,-0.121181174977
th,0.157724287149,0.331137637983,-0.392915724941,-0.306452939258,0.261561290865,-0.0803055528408,-0.309048755667,0.204369881625,-0.201657357113,-0.00450412479842,0.104847039715,-0.416527859055,0.274211412435,-0.196247719676,-0.270198008734,-0.185885539272,-0.173609942251,0.545814560167,-0.286915567865,0.497510070169,-0.0877171132702,-0.0363254873889,-0.486651037971,0.589019590603,-0.018528119602,-0.128940871196,-0.323922654699,0.105431897091,-0.128178251327,-0.124189659299
t,-0.289637729639,0.266592966471,-0.44615991901,0.548753790202,0.0770796273674,-0.295996489354,-0.354587203512,0.387422443226,0.0564977451354,0.472338831815,-0.419631687561,-0.473390495021,0.510112606645,0.682643057445,-0.439141556037,0.0147193634635,0.476911125494,-0.0142511873368,-0.335780750872,0.360154671414,-0.481543703654,0.236865787015,0.218892895308,0.303409274068,0.609580216917,-0.380317787644,-0.396257662917,0.385980502093,0.422500124702,-0.319812945758
ehn,0.161964316476,0.18656956634,0.197595111512,-0.0398740639387,0.0164670464318,0.0922151782254,-0.327042481717,-0.022984825336,-0.013781495099,0.12510738704,-0.040671044268,0.0423561355241,-0.11325133701,0.0730533125997,0.0999975080332,0.143779157274,0.160009881745,-0.363875276172,0.240762319265,-0.170249108265,-0.0121402541333,0.0734033281157,0.0961499976445,-0.0347726228245,-0.110160096749,0.250897728417,0.0474345518546,0.0245908216819,0.00148826709833,0.243513778063
<,-0.327279362266,-0.314764517488,-0.0416981725987,0.181954619353,-0.0208479979597,-0.0494735844145,-0.229249586325,-0.311242825906,0.245322527564,-0.25209550537,-0.00140612020899,0.13873265423,-0.0855570948102,-0.298646485916,0.119272810242,0.115299552434,0.176099579766,-0.383852752583,-0.0773275746511,-0.305903687052,0.101803949118,-0.329221524482,0.101420081286,-0.147793922169,0.0475951680355,-0.166436046603,-0.0567335248892,0.272119716118,-0.343850824165,0.211236177098
>,-0.0494584060943,-0.236274114262,-0.0218846360626,-0.0177156832965,-0.0586145538506,0.42360441289,-0.228544738084,-0.225235410956,-0.0484557046458,-0.329814920944,-0.00595898172484,0.15500991019,0.169853687274,-0.116628181467,0.128125631627,0.0972026149672,0.177650120604,-0.269096791762,0.360114708922,0.000159691693554,0.0248598254016,-0.0495872001491,-0.207791784352,-0.0721911447088,0.211607717928,0.050354828333,-0.163837120987,0.259769977806,-0.364003060109,0.342094326649
ng,-0.592871438987,0.54666432919,-0.174853649435,-0.153585373093,-0.30806768599,-0.486409416463,-0.330033508306,0.145127379575,-0.633757710142,-0.620833471512,0.320824615391,-0.494054075165,-0.31535564456,-0.469214367471,-0.0809778083679,0.336202875013,0.209855238987,0.160909945518,-0.500937407103,0.348426027509,0.437262110076,0.387008678615,0.684364814992,-0.320640119707,-0.509447959449,-0.484679092659,-0.672959167293,-0.0378425610769,-0.284942977883,-0.449836052361
dh,0.25934250444,0.592401690502,-0.460214923684,-0.349909418858,-0.537301503431,-0.459171441783,-0.460300011434,0.383959999299,0.494248718596,-0.482767651454,0.0067484793581,0.364882185151,0.310529122709,0.579018997995,-0.364667796523,-0.702278328005,0.749469999935,0.626471056366,0.0445283248321,0.451944178152,-0.290801642091,-0.1803629051,-0.607939235626,0.587397722749,-0.467012747907,-0.328453254598,0.380305542971,0.0149802128976,0.139276308685,0.393911484162
uhn,0.0337139953456,0.165663610744,-0.0410536154323,-0.0188235123376,0.00915386544322,-0.0311052167303,-0.34488884192,-0.0082311294898,-0.0363443835132,0.0014834871253,0.0273124788103,-0.0419026002811,-0.097805700385,0.141998526166,0.0494039416345,0.0534118162702,0.0688962717291,-0.0798579707901,0.0585515543493,0.0305389493227,-0.0904010859855,0.120658935283,-0.0363724750771,0.0104309446221,-0.00382845189878,0.0712941376465,0.019486077075,-0.0840683511067,0.0502060785202,0.0431662136777
aon,0.0592432426641,0.172620248125,-0.0176253173231,-0.0549316216894,0.0546226930807,-0.033127866858,-0.342139884594,-0.0200625925921,-0.0415521601384,0.0175486564822,0.0512038905135,-0.0408497946631,-0.120953263073,0.122925750779,0.0418219895622,0.0874292232944,0.0418205498441,-0.132617567088,0.0757700214153,-0.0104563663649,-0.092594155098,0.107957482172,-0.0230085469175,-0.0104352913282,-0.0271890209112,0.0420738603431,0.0750071040909,-0.0832737111115,0.0879736563956,0.0847295075322
aen,0.0461155873354,0.0271482724769,-0.0598515105684,-0.00868172217143,-0.0431829344874,0.289947458605,-0.356535825642,0.220980710891,-0.18175329642,0.315705151534,-0.250596693102,0.226690828303,-0.199896122661,0.190583290161,0.0588352624724,0.23839172418,0.213973871503,-0.383250169924,0.208164403401,0.0597528769821,-0.0895779410352,0.311747631292,0.153844013528,-0.171606214437,-0.0781768930216,0.155187952913,0.15426711827,-0.00696678277275,-0.0763104499102,0.26041944511
awn,0.0087676065131,0.124375389941,-0.039006538676,-0.0591060111966,0.000941615118538,-0.0398727932253,-0.348179712057,0.0450087359956,-0.0930019700673,0.0882075577502,-0.005851858306,0.0773546085202,-0.0635305965345,0.135770193294,0.0854523043797,0.11011061202,0.0122025248147,-0.178949704516,0.0744476844924,-0.0448089034223,-0.0821465929052,0.161794313896,-0.0111854603106,-0.022327773806,0.00313471531393,0.125098012997,0.0793907623946,-0.109553455553,0.0859506426781,0.0697726899402
hh,-0.140479052416,0.370964222835,0.490894291703,0.235218437004,-0.211389301257,0.401498102944,-0.279033693703,0.474076519579,0.369325447054,-0.377999700089,0.41582973499,0.342001718063,-0.277689842501,0.596928673547,-0.506321093935,-0.706359004495,-0.0268562604344,0.60288191334,0.0893107062548,0.143947366121,0.382823963529,-0.613416566054,-0.456346410116,0.158002701914,0.49877724528,0.216111899377,0.00539916448857,0.576577068212,-0.665829998846,0.12405954551
jh,-0.303812918619,-0.038544318742,0.0909721318975,-0.068936425122,0.094062911758,-0.197010118649,-0.423381321294,-0.302524139987,0.00389191854642,-0.309418401146,0.191458604398,-0.319655247856,0.38150125381,0.365314471602,0.18561992171,0.104132428667,0.369667238718,0.362838288305,-0.185020332644,0.278764852156,-0.192217955409,0.132802582356,-0.410922910322,0.406592109774,0.393730887681,0.0907825900046,-0.143978931923,0.0538203082136,0.203157014956,-0.0807180390457
ahl,0.0379254361462,0.168482793564,-0.0484955469196,-0.0178022852206,0.0142572334351,-0.0125833707516,-0.347556036937,0.00525963598113,-0.0397106826377,0.0042774852618,0.030104819626,-0.0561914555642,-0.0867594171397,0.139659484529,0.0535475626419,0.0453662069258,0.0729752742884,-0.0756831793748,0.0549746172837,0.0337198014268,-0.0868777286261,0.125223815612,-0.0325696734653,0.0236517738563,-0.0103164427443,0.0756718845233,0.00976073528026,-0.080355180727,0.0624951678641,0.0363398734356
dx,-0.48943821172,0.376427473005,-0.321778393711,0.535713176143,0.365775308382,-0.364854335418,-0.319430030201,-0.302332053761,0.534474759569,-0.593236218089,-0.107293212094,-0.603617839176,0.617800917933,-0.216437765112,0.259051376386,-0.560641167045,0.375343733521,0.625249852604,0.416825013474,-0.503626675977,0.510347566088,-0.529079766553,-0.449916296968,-0.153596851733,0.181166799307,0.270382710747,-0.455950819048,-0.503159974808,0.0702969680266,0.0361908632093
own,0.0987221874872,0.0808922426258,0.371599343609,-0.266928770871,0.155366603592,-0.219903538603,-0.302449123691,-0.16416355381,-0.0212326531184,0.231635489952,-0.205776292475,0.273503876188,-0.485818940119,0.149206400921,0.110494431026,0.230671346642,-0.239464063392,-0.512034518073,0.474961696935,-0.400007463731,0.374362071336,-0.194087026021,0.31385324425,-0.397534730311,0.0846219520329,0.305967144871,-0.0903202687001,0.248562400947,0.0944915356762,0.232960611578
em,-0.0640425225138,0.493899636777,-0.26230509596,0.0906592930116,-0.189542638528,0.472161653855,-0.310351448666,0.155401924051,0.350155430608,-0.24899352346,-0.486524822852,0.136089802508,-0.413006319227,0.0108223294898,0.328493219263,-0.106661910476,-0.390837031044,-0.581888852104,-0.392444504444,-0.209373848136,-0.250165844521,-0.0831707746551,-0.258867623028,-0.196738741776,0.112476541862,-0.0969891228831,0.33437769727,0.253333116109,-0.421569689826,-0.132521709785
iyih,0.0311122071078,0.171407297171,-0.0486096418303,-0.0175405970913,0.00936806858154,-0.0178620136858,-0.348107569681,0.00372455208555,-0.0370000039662,0.000123643892364,0.0258703274028,-0.0545143831522,-0.0810558650978,0.145659392039,0.05307230804,0.0373838523946,0.0781317581304,-0.0673122434757,0.0483727417293,0.0393664213444,-0.0833530012537,0.125072359452,-0.0365745560281,0.0273148843042,-0.00206927276046,0.0710815027358,-0.00110374521856,-0.0778948065818,0.0586752156091,0.0296658143621
b,0.215022845784,0.38009259927,-0.422446997239,0.111533689556,0.0397088887052,0.0191966230955,-0.484297761532,-0.0177293080237,-0.229488324962,-0.487811877703,0.319870805725,-0.509804843608,-0.366036400831,0.404756364343,0.308411397,-0.555826561697,0.484182237734,0.595298265786,0.468419645488,-0.21959088996,0.199481444885,-0.172304050389,-0.549247451828,0.605578500923,0.500204257329,0.289307977474,0.239981170618,0.558962434188,0.472421964548,-0.00762772606119
d,-0.532245781923,0.420694435034,-0.159748473997,0.436866511826,-0.23101649268,-0.189777495129,-0.402151194405,0.046543898389,-0.321966824047,-0.383053596839,0.24819232179,-0.47662799306,0.594593095693,0.452411337233,-0.276376186261,0.00739670112488,-0.428551492855,0.47500430721,-0.355572150203,0.226320356379,0.314866835269,0.46885772488,-0.132427530042,0.474658414756,0.5076694665,0.463317866964,0.121515835986,-0.581885674848,0.355536208636,0.293186859297
g,0.101520738925,-0.33070307618,0.173322759718,-0.443654131529,-0.313172367572,0.430587514253,-0.340810880748,-0.377075619837,0.332838985701,-0.470227556814,0.334714095481,-0.498865156987,0.105974053677,0.361942472248,0.0094115607976,0.524297804894,0.63609459676,0.438163066099,-0.22188047815,0.477143975152,0.390431739389,-0.418056138161,-0.28871968165,0.437682484584,0.00922935984553,-0.146900292596,-0.530735860236,-0.431244551643,0.481149731841,0.31377373972
f,-0.15194070904,0.0801176681975,-0.304440991944,0.162771190943,0.492293308899,0.567888208379,-0.462183573689,0.290966279845,0.478230817998,-0.453230384926,-0.173989544966,0.0956605317936,-0.336346817255,-0.101899263152,-0.337177732766,-0.288387787322,0.233009894427,0.299871448228,0.0736777928902,0.376913778397,-0.15296770528,-0.0365140670519,0.238485668396,0.565470996517,0.38580273833,-0.0305924129324,-0.500771219966,-0.237158533239,0.557201983164,-0.335247127547
h,0.0309982179494,0.176219499405,-0.0498338461221,-0.0219023174991,0.012654761043,-0.0188305561657,-0.348223915021,0.00152627187702,-0.0326284633895,-0.005425457107,0.0262131097332,-0.0551461188622,-0.0782421502185,0.150737184249,0.0510565863422,0.0395283489876,0.0822433645366,-0.062637740755,0.0530947291391,0.044181053869,-0.0819632806059,0.121244616546,-0.0310775812331,0.0412039017039,-0.0026594328865,0.064699381042,0.00186513984807,-0.0730864775919,0.0576987124426,0.0341067534928
k,-0.427779522783,0.326779485012,-0.586498508053,0.390804676021,0.36350815674,0.357752458985,-0.240311335924,0.25035064862,-0.476008821124,-0.153347952846,0.514110092037,-0.161424491506,0.264131443862,0.462703951786,0.47313268527,-0.552239188097,0.41016588127,-0.224433457198,-0.613268323418,0.474202858887,-0.123760837926,-0.442368567332,0.320925865614,0.525057540372,0.443294318134,-0.447752324047,-0.504238552696,-0.35162506213,0.0935821294793,0.228754814914
iyn,0.0896985243148,0.139425969572,0.0390429361823,-0.0903602557674,0.00754595193069,0.0138564707527,-0.343904969753,0.00671412489319,-0.0677611021368,0.0497622494788,0.120597567356,-0.0141788087779,-0.0406302897293,0.0209685240377,0.100850151194,0.00341105150117,0.0584283145569,-0.0490742066515,0.0263017722663,-0.0101870689287,-0.0764333314239,0.139440370982,-0.107796055416,0.020074358286,0.0154688733621,0.113736523566,0.0522848477067,-0.00508512194498,0.0538727676659,-0.0568602422346
m,0.622655126439,0.409860263972,-0.394087659162,0.349295360894,-0.530973817096,0.0776935133822,-0.37276078055,-0.350748827121,-0.183058695161,-0.389888266882,-0.275288960861,-0.191136188552,-0.125065358742,0.466532627564,0.23707472827,-0.589506823914,-0.18552014519,0.357796257267,-0.385973790963,0.151045131537,0.108589167788,0.468047345803,-0.407354939097,-0.129026971765,0.60319916838,-0.197734540943,-0.517983119973,-0.285477937312,-0.231472263611,-0.4031784433
l,0.588526011823,-0.125652128007,-0.140010078008,0.494670866983,-0.0539585528482,-0.208812381276,-0.345730640371,0.464807888534,0.303264568546,-0.0979778953443,0.195813316924,-0.267905035435,-0.362489609759,0.428436890457,0.317791997934,-0.10267786607,0.715475159911,0.525263225301,0.152521498492,0.431591800465,0.169149772178,0.542434142382,0.437420376945,-0.244635659563,0.370106479223,-0.113807358109,0.182992545588,-0.41030218315,-0.186119826446,-0.454435410943
o,0.0299755668586,0.171757050284,-0.0476207451434,-0.0210739555811,0.0102784886508,-0.0185739761815,-0.347868865925,0.00297931989329,-0.0362029364465,-6.81942245103e-05,0.0217820171441,-0.0517955647389,-0.0853269720904,0.147846157951,0.0547195504466,0.0426141966235,0.0740007180331,-0.0729371387348,0.0474623002117,0.0354067268565,-0.0840799398923,0.125879400905,-0.0393470601051,0.0298243098778,-0.00463085582546,0.0715516054187,0.00211040988986,-0.0782868165526,0.0528109902773,0.0304106860084
n,-0.252576729158,0.361922866252,0.602476609275,0.456033182338,-0.305769665179,-0.644995021847,-0.290695144469,0.0586749550957,-0.309073522685,-0.361222513554,-0.383734187473,-0.534695936087,-0.189398913899,0.664225395581,-0.333951108045,-0.444368975954,0.4708443478,-0.6681144524,-0.0827983059273,0.450207119468,0.546967624472,0.225406053836,-0.152054580175,0.391291416623,-0.0655584947335,0.27722883129,-0.570131079886,-0.486948488757,-0.0271407859522,-0.478844910159
p,0.383113231112,0.362379340925,-0.545847802265,-0.0887459133077,-0.0288904032762,0.617931894124,-0.382220913892,-0.226300181743,-0.046212837376,-0.389548835999,0.371589809152,-0.479944494503,0.0541388667944,0.366923719196,0.0613071362089,-0.392078164795,0.622941232315,-0.0933017561244,0.464790632403,0.3707411447,-0.350054375891,-0.452364997531,-0.160865361563,0.364374020059,0.0212705320459,0.683991702559,-0.451300953809,0.467777753664,0.297858869524,-0.554473494975
s,-0.470330981794,0.485515771323,-0.477872823465,0.360890144689,-0.04776617366,0.200555825264,-0.473688692033,-0.27017239939,-0.494848362053,0.396979707261,-0.411584737541,0.382613539273,-0.16904160898,0.318398187291,-0.465644673442,-0.286702325564,0.622600900251,0.609195175748,-0.502555114612,0.496799973429,0.163748579698,0.339254504697,-0.171316549428,0.129714227957,-0.479258189871,0.0281800214512,-0.251367517048,-0.234099391349,0.328058927563,-0.260159437588
sh,-0.503042477096,-0.271608777542,-0.423531499631,0.549952742743,0.375781064141,-0.0588367695115,-0.431965849717,-0.504494013882,-0.349716083324,-0.214445959259,0.221632501766,0.0454809397286,0.0585683436282,0.223025380945,-0.103268365742,-0.0813430490222,0.801651217655,0.30835047286,0.473945254835,0.53518104977,-0.444770463541,0.392083746322,-0.320525019628,0.0184011674312,0.0384130235818,0.604117830203,-0.417185058184,0.0666740467164,-0.396619737771,0.332401102345
uh,0.388272666451,0.360832645162,-0.210757662305,0.367108214455,-0.205154596541,-0.311827398747,-0.354028966915,0.137668205271,-0.205734698885,0.144351840031,0.245679116365,-0.221893446834,-0.42334326014,-0.486317865041,0.0675443240984,0.720000041257,-0.0351626885827,-0.617275551357,0.590113960041,0.0888060131391,-0.721065548518,0.550528606827,0.447974464693,-0.494571195962,-0.475529101263,0.20944762784,0.544899587456,-0.67187583275,0.547180790772,0.546192733938
oy,0.119505350671,0.272442013047,-0.0499259817015,-0.0885440784449,-0.0652130556332,-0.0803529553015,-0.334583281288,-0.11152333768,0.225065312222,0.3746994042,0.328813766952,-0.136707917745,-0.284477400533,0.143364700389,0.201488902901,0.319198614691,-0.099380310755,-0.316692210327,0.173283956314,-0.275645485632,-0.207565920707,0.489608908992,0.174409251159,-0.186548658067,-0.150251648486,0.179715369463,0.320294518291,-0.140193900248,-0.057397390318,0.143972058767
v,-0.115772098775,0.43634336123,-0.25753232094,0.0584622932062,0.293296458094,-0.30469108723,-0.417593844347,-0.289700649273,0.278000955287,-0.60904603164,-0.218629504117,-0.559780379488,0.173637378833,0.343583428005,0.273655130621,-0.513629952424,-0.294974174102,0.426206860421,0.204577008175,0.366693116699,-0.410590339591,0.0399461061544,0.294915918838,0.383524079902,-0.448130158073,0.231965498025,-0.543338698407,-0.465819879564,0.027778989514,-0.502513739339
y,-0.557144114191,0.370105757667,0.608285926583,-0.418935136667,0.258700846541,-0.0712468749144,-0.296022053186,-0.0166644566265,0.546754279958,-0.532475714214,0.367802850514,0.202077836166,0.595610901639,0.327109775698,-0.226424167524,-0.430623362489,0.508507519796,0.392789786558,0.519229879636,0.429959825606,-0.59143897695,0.462431448833,-0.496046930039,0.499644729044,0.587854628665,-0.415853602834,0.547116444806,0.500171369014,-0.398204545905,0.427957499139
ihn,0.0726121786687,0.0613590999587,0.123678517628,-0.229253259001,-0.242185535515,0.0795406378508,-0.314423861121,0.0165856242298,-0.0614073651068,0.206821644438,0.154518809254,0.121038799676,-0.106181855753,0.0484649761117,0.167220589812,0.268903414056,-0.0173447899262,-0.316854265524,0.207386773064,-0.0622172848266,-0.0112497949658,0.153770543889,0.0169390915365,-0.005067917494,-0.188881088671,0.118406271952,-0.111794323097,-0.00396419090139,-0.0528831706463,0.198112770959
z,0.150162841068,0.254290542168,-0.0646756540133,-0.331172896103,0.251493396907,-0.530561706016,-0.332340668485,-0.201617469236,-0.504350105044,-0.651199941801,0.332376574168,0.131414656005,0.303604571737,0.301739477244,0.0449050429347,-0.55938711644,0.0805855593722,0.440242152564,-0.334127542287,-0.358302201479,0.434446230911,0.353122470821,0.504444031522,0.0641040747878,-0.0389789734804,0.199037625968,-0.442623481797,-0.421436039595,0.40772407338,-0.237544636173
uw,-0.34763935007,-0.418123493687,-0.354594703235,-0.544975958116,-0.681088704694,-0.588084886195,-0.304759225041,0.24066106501,-0.479979450724,0.627880218457,-0.455128730736,0.548380254031,-0.34064864064,-0.530507576532,0.517536308293,0.403556728309,-0.413925720396,-0.0152829693083,0.225318706821,0.193236487479,-0.700375713189,-0.271809622771,-0.357839825091,-0.125793481306,0.443049082185,0.555766995745,0.582735323772,-0.141213367656,0.336238829469,0.28292822181
uwn,0.0172104112229,0.158960922068,-0.050289082614,-0.0250664423551,-0.0101416313639,-0.0293683454891,-0.344377374359,0.000967946215131,-0.0477948756492,0.0266594464826,0.00733115704954,-0.0430934543125,-0.0904151680005,0.122102526878,0.0587723288079,0.0602407363802,0.0602229287452,-0.0664373413908,0.0563790410392,0.0352074317955,-0.099547902029,0.104095960622,-0.0441272523237,0.0268092398287,-0.00958434827449,0.0751004761318,0.0243362503548,-0.0743510233469,0.0491071534447,0.039936830831