label,c1,c2,c3,c4,c5,c6,c7,c8,c9,c10,c11,c12,c13,c14,c15,c16,c17,c18,c19,c20,c21,c22,c23,c24,c25,c26,c27,c28,c29,c30
iy,0.0390985290795,0.332985597151,-0.569388097241,-0.584385461377,0.576169509309,-0.463350995256,0.551032297117,0.400863942494,0.656667943532,0.561723369409,-0.417857500239,0.43499897447,0.346338034622,0.506599527867,0.608494999173,0.538996646456,-0.0391996196062,-0.576906650868,0.525353412834,0.691533826249,0.641112830861,0.349321917335,-0.471972034711,0.357326092425,-0.184806722034,0.633564138106,-0.186022171861,0.54811079835,0.396740707044,0.490698582265
el,0.345002475898,0.0256431737609,-0.00434677803022,-0.488797200119,0.206502476685,-0.355644367093,0.382199352736,0.346525532846,0.467834257835,0.054065180476,0.0541541087861,0.378719072257,0.0636816821452,-0.252335910682,0.39573821581,0.521644624251,-0.409687687084,0.0840191461898,0.365813139927,-0.256331801841,0.355791005164,-0.497074510202,-0.19699638355,-0.458531573859,-0.451307899207,-0.297634080291,0.383645968895,0.488324654578,0.0794256926883,0.586168080025
aa,0.608676798747,0.489303154393,-0.487935663956,0.273887771388,0.206712887513,0.685437955689,0.675601815657,0.497785379096,0.326092617349,0.732454095098,-0.666137544765,-0.0254542631302,-0.467062424728,0.161300793205,-0.210257763953,0.672606011955,0.433429949994,0.111633782637,-0.0304898878388,0.111957330217,-0.63069613865,-0.144377990632,0.0870476700871,0.402274771054,0.38057777557,0.167168257751,0.464726262717,0.454721698928,0.0513281794058,-0.641848612795
ch,-0.241021995995,0.183963542868,0.0552187468039,-0.201901095557,-0.153549564915,-0.33786142222,-0.377837872631,-0.155971502045,-0.389380446017,-0.260172005735,0.445509292957,0.392797793029,-0.523367492333,-0.0778602876305,-0.380882421659,0.384915278385,-0.220247037053,0.451843624756,0.192301756196,0.142342508133,0.174294217147,0.110672763816,0.306716943923,-0.65046875324,-0.439021930045,-0.459746970034,-0.510362156834,-0.183197008024,-0.107104004656,0.183662442746
ae,0.571565810531,-0.253265155034,0.530825726669,-0.510862313594,0.666668655399,0.621095193242,-0.419259852681,0.512942416027,-0.200374180294,0.529081250753,-0.590134755287,-0.624292040283,-0.276276805047,0.492885397088,0.0231078791566,0.636760754769,0.396343755037,-0.615491952845,0.579948768502,-0.417909296531,-0.628735714945,0.600771558402,-0.595148379147,0.501441159392,-0.449469842511,0.382070654089,-0.35673918884,0.498012959427,-0.0303686340578,0.436059551771
eh,-0.0771280972424,0.533683754991,0.12968880884,0.470793379964,0.533895543661,0.596009692259,0.485732329575,0.324728066514,0.505331829562,0.566034353395,-0.640181897885,-0.629932482221,0.169422179795,0.555905495545,0.427472194972,0.392855498132,-0.35880516332,-0.521903534941,-0.576146854702,-0.607162071956,-0.533352635128,0.379539134334,-0.251637374693,0.581628161103,-0.512940454385,0.390836770691,0.292345996959,0.722783519668,0.15194951831,-0.29814059592
ah,0.374910732685,0.426750796628,0.479685265104,-0.591820183722,-0.0817606282788,0.509881217513,0.518592833051,0.605151614765,0.256427415237,0.564986426083,-0.629204643214,-0.638661339176,-0.492171221465,0.137075061515,0.322677879067,0.305077680575,-0.511974984513,-0.0954944957654,-0.363908976318,0.392913158695,-0.564801681571,0.515331289392,0.294145910817,-0.544210894044,0.45631938694,0.612107604241,0.703404868501,0.684891506491,0.481325710975,0.552115530375
ao,0.0189384556185,0.0841924512166,-0.0479435395068,-0.185130222771,0.0855581081168,-0.0260255280221,-0.0442057982883,0.0498477576803,0.0148743565972,-0.0733879228566,0.0105343795799,0.121158033452,-0.010637022155,0.107226320904,-0.0621968292117,0.0938820284119,0.0111606608201,0.00215506073101,0.11898776807,-0.00216054027702,0.0777604423579,0.0594035921939,-0.0362436115867,0.0172839967337,-0.103427802525,-0.0664720220379,0.0933270208896,0.0378670406722,0.010429384757,-0.0273431096108
ih,-0.127273293664,0.173595501746,0.398281980516,-0.0510304193982,0.407618362553,0.673382208501,0.689354305264,0.634110210978,-0.375461936902,0.483875379389,-0.765036936897,-0.699042520034,0.615823824364,-0.403561527307,0.307755492842,0.309396568253,0.765506919997,-0.688439591297,0.597886919648,0.176980077547,-0.739993787822,0.290222006002,-0.478477847631,0.173582513168,0.546240910343,-0.478580870574,0.385190608107,0.728953118202,-0.0471712647091,-0.226609573661
en,0.0549518171387,0.115734353077,0.0613484485436,-0.516865312795,0.0704921835382,0.346945691927,-0.0423669022596,0.111695744064,0.54214547173,-0.356116295149,0.437568137979,0.338314523077,0.0650240037867,0.356415150192,0.305351915257,0.373847370139,-0.0479419777982,-0.287511975782,0.571065323629,0.183294538956,-0.425918329544,-0.379376420619,0.537513981813,0.499152622402,-0.0171847514945,-0.538340528898,0.281050320838,0.395715472882,-0.356244540342,0.376695744722
ey,-0.18230803422,0.585848534084,-0.42624618179,-0.455439363273,-0.106491255372,0.465519031922,-0.137360806873,0.449850933406,-0.125310641093,0.513399026464,-0.634597805492,-0.438253475788,-0.227980960205,0.330824672158,0.658638591094,0.476434803031,0.00359779001807,-0.445388723244,0.366753390851,-0.325564265975,0.626451884556,-0.51530635787,0.344949497268,0.0516019222681,-0.618542378732,0.47130278456,-0.455087289144,0.680196366406,-0.524630195199,0.320455440411
aw,-0.317798742651,0.260865383683,0.287812183108,-0.611995969117,0.304487937172,0.460170196349,-0.260279813385,0.458784982604,0.571936104248,0.446238167782,-0.351297997981,0.489414676663,-0.0235455047702,0.0670704818098,-0.215156072891,0.543752161974,0.69033340308,0.255735345834,0.521863682062,0.224782858428,-0.210147806832,0.581459951587,0.439653480733,0.175749177078,-0.269616558217,-0.180288193708,0.188941376305,0.574486665756,-0.405077595455,0.376743681424
ay,0.339877561117,0.639432434327,-0.22615468754,-0.753057154988,0.214415477305,0.654126974932,-0.597512050907,0.581896726151,-0.25242878353,0.634416988437,0.0226831603414,-0.548107070117,-0.581985211877,0.673344627108,0.421563079248,0.120514111255,0.381304438582,0.468378766205,0.26287292848,0.274259832647,0.553208017633,0.121643797727,-0.226228185439,0.658380563472,-0.00864962270107,0.690123279983,0.399291289726,0.704292114393,0.547570545588,-0.426468416382
zh,-0.195844023858,-0.179732349375,-0.170220095488,-0.129535538154,0.240599594179,-0.242779675688,-0.0526365055033,-0.0421299362871,0.155151847329,-0.116371395736,0.182212462212,0.2475381786,0.118514437466,0.174683161453,-0.00925497221504,-0.0304648524753,-0.0572179986509,0.233062891062,0.193539114052,0.0663163592029,0.138819656312,-0.0965321776154,-0.201271125438,-0.211422390015,-0.126380615845,-0.269823431101,0.0792815935758,-0.029229367953,0.0855555776631,-0.0847003500181
er,-0.244351827917,-0.0643534933726,0.352252047403,-0.710099323049,0.458793438376,0.272677648123,0.589719301851,-0.393140621563,0.493541388672,0.359951518585,0.568764667051,-0.396222939563,0.408877425905,-0.288258856153,0.460962756207,0.502668460745,0.000641125632991,-0.528113913445,-0.147235248579,-0.397452816724,0.31776052607,-0.500598980741,-0.584066623828,0.120543288053,0.159762635726,0.713940056281,0.376139087715,0.634717527255,-0.478690694938,0.50837416333
#,-0.680975013741,-0.506665794793,0.498842047106,0.622247350593,-0.121622974704,0.60041705445,0.630866481686,0.539169885449,-0.455874837954,0.685000561354,0.692252905994,0.599536171597,0.650304488146,0.431524905101,0.58066685706,-0.635478971516,-0.58680364326,0.482242918591,-0.673926501318,0.624133103903,-0.473378685246,-0.680775306155,-0.0953333070343,0.62219027006,0.614702074395,-0.696051572181,-0.583092264362,-0.762263690037,0.369928229734,0.579522183093
ng,-0.132034932949,0.30732627146,0.509970428983,-0.775171032384,0.551524073627,-0.71201754895,-0.546158107642,-0.315028417905,-0.530463030425,-0.48126564785,0.576373050699,0.54342362429,-0.634387654403,0.342194012227,0.634783957846,0.613281780081,-0.392954614059,-0.402247682031,0.0325247980535,-0.662747424139,0.363971737486,-0.677001208671,-0.663430932996,-0.533158019939,0.529943287145,-0.622681718277,0.610344899034,0.196319193692,-0.193992886867,-0.622510776984
r,0.519158319215,0.48538842854,0.0471192418446,-0.584441539868,-0.513774698025,-0.665227952419,0.528306307904,-0.00633370543511,-0.237243369522,-0.717561291636,0.611440801498,0.245523551622,0.42939142165,0.455793713409,-0.608953672727,-0.721109478427,0.593194269333,0.358713200174,0.408611051068,-0.507627198892,-0.405383484407,-0.561457858103,-0.563568663564,0.186150312674,-0.601496125783,-0.467172400412,0.729876686905,0.639373725883,-0.398318299422,0.529981055426
th,-0.351508001224,0.437691477357,-0.0736745001985,0.259692156501,-0.171450197607,0.0528345783348,-0.500529582554,-0.497877091949,-0.224901433036,-0.37494883745,0.12122850434,0.443684794428,-0.263660202913,0.44274688156,0.491694897255,0.390632969664,0.132053873442,0.261286414832,0.499731378305,-0.435254786911,0.364453545575,0.391742278693,0.215060960288,-0.417141216956,-0.0576430291341,-0.221354502761,0.289248128984,-0.309121066285,0.314922837276,-0.447649307904
t,-0.561422197456,0.517176269616,0.203998371155,-0.582264029536,0.468994220477,-0.53627874582,0.609868393837,-0.708037991375,-0.444209147522,0.374862094929,0.536423270425,0.631217203847,-0.628421173347,-0.42106047431,-0.459927321577,-0.568362115382,-0.528820415861,0.601129684749,0.462370542786,-0.641947140833,0.62494128067,0.498404626468,0.526028554508,-0.243451786626,-0.432814343213,0.270691769433,-0.427116869125,-0.53367836087,0.190348034229,-0.536856972036
<,-0.103763812619,-0.130257560976,-0.0108933696107,0.133401190654,0.145676944299,-0.0884118984375,0.0916623223316,-0.129468998642,0.0999064378434,-0.097599044131,0.10877426607,0.305372581075,0.165785077146,0.12375080666,-0.0659015662306,0.202079016492,-0.0484045043872,-0.12464227781,-0.239808188692,0.115592234292,0.136651484917,-0.113255947558,-0.305678606354,-0.202684854017,0.0308526188172,-0.300420789404,0.0385977062403,-0.19018021927,-0.193459718438,0.247302103579
>,-0.128977488525,-0.170811459295,-0.0994609697429,0.17620922503,0.0675660698441,-0.00627505350047,0.0599398067678,-0.0142332224865,0.010963371469,-0.199546896332,0.011923780593,0.214302943813,0.191219534939,-0.0630608736,-0.0388898862323,0.129055026389,0.0838248494842,-0.127926084827,-0.152788282357,0.130299895986,-0.0975056163667,-0.09201627029,-0.150576760422,-0.190730040122,-0.0143283126785,-0.276695284769,-0.103217632264,-0.0367960813311,-0.0993157971273,0.166873245783
w,-0.217556550976,0.277420813445,-0.593170631528,0.34678847141,0.0447605282661,0.375335969436,-0.519519865721,0.606058966268,-0.372846509622,-0.595686293823,0.36141775892,0.314912338193,0.33285554341,0.295704481834,-0.680205271315,-0.669055461983,0.657257135668,0.440826589164,-0.0905554684654,0.63525937201,0.228248378745,-0.0923225288301,0.253451530827,-0.496283137166,-0.684840549157,0.457422851768,-0.418766515886,0.0330703934461,0.366445687056,-0.248762988607
dh,0.390512407,0.539260288451,0.419498002416,-0.247821185239,-0.63466171348,-0.539948167354,-0.669689171623,-0.156688361038,-0.418911092858,-0.658884113662,0.0756572647463,0.480557820981,0.541024190842,-0.510941454784,-0.636383927189,-0.43992357085,0.619126889291,-0.282723866405,-0.68711708689,0.48132085879,0.204663411067,0.397023201762,0.507011299733,0.65890428358,-0.501269699738,0.110087815256,-0.587763631268,-0.551674741755,-0.31829624905,-0.517545733648
y,0.124502109851,0.498998495779,-0.522204375361,-0.512171788061,-0.524569489058,0.254898947562,0.489058663848,-0.614040963763,0.411590261189,-0.424123052082,-0.235826509266,-0.189061908008,-0.560713595937,0.299576575824,-0.485942304167,0.020482792738,0.676586718802,0.478937354584,-0.568922352096,0.4142945271,0.483416322218,0.585097992064,-0.464315896783,-0.0386848536832,-0.617183177268,-0.596178890874,-0.406678018912,-0.626319183345,-0.127620833402,0.331265964217
hh,0.505091983143,0.309843050798,0.0541427122027,0.528286153741,-0.607670837648,0.625594408098,-0.547407925407,-0.660232119173,-0.25361278846,-0.480129217894,-0.426615979181,0.44670443858,0.533940245053,0.407669521001,-0.154872754452,-0.606775628165,0.679210276074,0.495305387917,-0.402597496076,-0.0780340096761,0.589975551423,0.544784358798,-0.222504866234,-0.244686023164,0.421930819921,-0.372430107604,-0.528171577525,-0.424875105902,-0.627980815005,0.278678740542
jh,-0.421943433734,-0.421634954722,-0.444011324375,-0.222570768286,0.397557601358,-0.463380369216,-0.318178012925,-0.14947957581,0.351557472293,-0.215842658521,-0.316410125107,0.436950711627,-0.100105283873,0.046255069593,-0.44160054416,-0.36294743136,0.299156179168,0.406792163103,0.0642709342412,-0.0104242832602,0.315558778244,0.118338747921,-0.277957828367,-0.245578454431,-0.352798243908,-0.302283598948,-0.0235818705704,-0.199837927787,0.223055960786,-0.451295981429
em,-0.0333049363621,-0.13734090712,0.396986455256,-0.522461531148,0.301756958745,0.499179664644,-0.18902370347,-0.333239408382,0.504428611234,-0.165022279574,0.172849580278,0.302666535944,-0.0695195076053,0.294995657306,-0.170569250121,0.459224219126,0.549964398401,-0.330397671282,0.164617997525,0.229698221128,0.22294240105,0.420320026995,-0.426483885569,-0.285304048167,0.115942884994,0.276614974169,-0.0350548720138,-0.340873314168,-0.498667522859,0.0924357476892
b,0.448034574917,-0.514571131274,-0.541098310506,0.321057919332,-0.262141968435,-0.663373739725,-0.396011130866,-0.444805767472,-0.0669257557672,-0.666299164678,0.57046680371,-0.384563368871,0.625054693874,0.263496381598,0.328280347338,-0.448998209882,0.273009082241,0.331090383492,0.00563634218997,-0.192198677936,-0.0344601100341,0.417704408884,0.206490201236,-0.510265104999,0.0823215439952,0.217407222941,-0.478513655272,-0.474551879616,0.242185173519,-0.436200645901
d,-0.525974752501,-0.567991744976,-0.38222487364,-0.0863374725148,-0.589409276699,-0.699205769847,-0.606712578722,-0.415706945069,-0.516689057164,-0.452478575921,-0.426663501308,0.625471403843,-0.577290961013,-0.593568311027,-0.551522533897,0.437919199849,-0.482879281128,0.471808934798,0.315376548871,-0.278482100319,0.600151180139,0.587260745034,-0.575890002897,0.47422984951,0.597102354225,0.525821297154,0.388618665918,-0.553873027374,0.367107459235,0.12084980107
g,-0.470676896983,-0.336325092422,-0.291769792305,0.425290065646,0.276022580495,-0.662781007176,-0.264910787195,0.376274482284,-0.290493248535,-0.678835172995,-0.0339166118162,0.371375290315,-0.331577089246,0.470636221109,-0.628711790104,-0.533913531626,0.511443228134,-0.519664064532,-0.384315564487,-0.175579781119,0.554965687502,0.339846011844,0.321363960431,-0.170275117611,-0.358705632235,-0.463682357037,0.631103277676,-0.420842375325,0.270287305028,-0.238762268055
f,0.294931828226,0.342110284203,-0.247894524049,0.421775971949,0.0913488608288,-0.52269808711,-0.490151590147,0.198762526116,0.276128883775,-0.555124520048,0.530134551637,0.420999272904,-0.21414132423,0.270075900742,-0.72156386412,0.209529113541,-0.316392452758,0.194550337955,0.233496137042,-0.406875265145,0.33024662175,0.369004837499,0.036620104132,0.050437002122,0.233614981055,-0.526402596459,-0.237135735203,-0.548931762864,-0.234064049324,-0.378036935788
h,0.0584014042475,0.0973475724256,-0.0242579563486,-0.0714718225755,0.020611613933,0.124767699808,-0.0918671529112,-0.0580170662094,-0.00972620165784,-0.0885568412706,-0.0350787857546,0.182341790861,0.0617443645468,0.156925459103,-0.0207916976918,0.022737216296,0.0958781535379,0.0509062598519,0.0124967221638,0.0226927506442,0.14531783286,0.107182285327,-0.0790639852617,-0.00905426519086,-0.00795957243777,-0.110691701759,0.00560212640775,-0.0166966078389,-0.0921601350514,0.0432250251998
k,-0.635480947227,0.449391896529,0.309100520333,0.415301491639,0.653524204941,-0.616123439201,-0.314343480926,-0.448169793256,0.625570674952,-0.337195157352,0.514483966536,-0.440172227707,-0.476792591213,-0.462752640398,-0.22568669673,-0.584858535204,-0.538858376628,0.236626542089,0.475996910492,0.527662720742,0.494775543127,0.447178569965,0.336503343008,0.295127968383,0.401990550071,-0.576762328411,0.443317090861,-0.466050993996,-0.518902854394,-0.0389243671167
m,0.467352910808,-0.533360713864,0.529338911247,-0.334042792116,-0.532151173031,-0.720088180054,0.038534993183,0.59913929643,0.134750672794,-0.574422451802,-0.148587192918,0.37537343757,-0.297812092221,-0.0624431274607,-0.637703936918,-0.62351537872,-0.394038869046,-0.148905960793,0.623718214442,0.358329166752,0.613550182461,-0.382773073285,0.0381103246797,-0.136696742373,0.44769796294,0.104364689083,-0.297505282037,-0.183957151543,-0.16636077715,-0.345073930544
l,0.593245052129,0.481855192156,0.397186354396,-0.323473692437,0.167972060517,-0.122356283047,-0.3854622431,0.587308745064,-0.176636588242,-0.39090933869,-0.202830538954,0.398890290039,0.556418661732,-0.50996633066,-0.412343170988,-0.572703718801,-0.509834050767,0.371842571549,0.224839459715,-0.143014269685,0.145193127039,-0.21170979459,-0.434216634947,-0.517843424358,-0.599641176841,-0.466207298611,0.43054210279,-0.301654732589,0.336612075314,0.378926762383
n,-0.0576240590841,-0.523826797128,0.546364367618,-0.680254008321,0.619823811599,-0.380558636619,-0.543055846184,-0.644161884787,-0.526748515377,-0.608813693529,-0.253138237972,-0.537802308833,0.559818726705,0.546900600094,-0.598500073745,-0.150067202725,-0.471140235285,0.299109636251,0.506820666353,-0.671440943433,0.441257310315,-0.55747307747,0.678907521265,0.444445358288,0.220140295159,-0.641251937975,0.402985651526,-0.24382806296,0.407079061903,0.223624967476
p,-0.396565895906,0.546178401803,-0.279568742829,0.438958862738,-0.440350282401,-0.632880584925,-0.497817965514,-0.182133664076,0.0180703053157,-0.54369722767,0.559338798028,-0.491370131808,0.24072666947,0.159185780939,-0.344044840595,0.104323885588,-0.198527394364,-0.646224602006,0.55818471237,-0.139250969712,-0.14481406386,-0.0907083741652,0.594483996675,-0.424384490211,-0.322311644758,0.019786845929,-0.332609262594,-0.543752484344,0.484172188326,-0.373993678355
s,0.319308060654,-0.108010672777,-0.242941878653,-0.689908123421,0.630511043777,-0.240431691184,-0.662496376306,0.339039623645,0.124987374346,-0.605976494798,0.494001727145,0.606127980147,-0.521827110779,-0.369065590119,-0.327395162079,-0.291448393514,0.370120104152,0.473652884719,-0.271332796393,-0.374275019264,0.0146017329313,-0.617427441136,0.463225663365,0.530796969784,0.409584671647,-0.534287570948,-0.53849135785,0.631852259089,0.507849864997,-0.300216230527
sh,-0.222532867473,-0.244192443999,-0.418686625868,0.00143812163137,0.358802774742,-0.29815243862,-0.333093841229,-0.556395565522,0.406317124538,-0.486032874055,-0.0356147936076,0.0735459647335,-0.235953038863,-0.566301208947,-0.593834129139,-0.287946385975,0.199981087327,0.367460607206,0.346094612548,-0.106178293869,-0.191770035975,-0.351321381615,-0.373377867515,-0.467698196622,-0.467708168457,-0.265399905774,-0.277752507033,-0.195349674376,-0.0913081595833,-0.362633670397
uh,0.564608673319,0.364374329211,-0.533329956537,-0.528295281171,0.678804149664,0.437268345918,0.371142824155,-0.271612876133,-0.387535052736,0.520959848085,-0.299593957836,-0.366243502089,0.295801526652,0.345377084815,-0.292131227199,0.648860161699,-0.533163155367,-0.17932578157,-0.592220023164,0.483469174735,-0.275324991264,-0.488769664422,-0.502462317372,0.09236422737,-0.288510706675,-0.20875877174,0.401672899794,0.51081147153,0.0354543073525,-0.188938817458
oy,0.0566731600829,0.0821782941064,0.0683706132665,-0.234340991772,0.0480413023586,-0.0031235136239,0.290626034187,0.250076387437,0.132374153284,0.274232058742,-0.174250135738,0.116525524109,0.128424760075,-0.0262912431743,0.0147996061672,0.341423373599,0.0624862601932,0.0710201526634,0.0172757694234,-0.010895625743,-0.0074603497465,0.142338731878,-0.315179345307,-0.0878015471709,-0.258802734279,0.0392203512942,0.345379223664,0.365181622309,0.00885626784859,0.35829936167
v,-0.515703623493,-0.524747138837,-0.284711430651,-0.507354880381,-0.454565989409,-0.495349299895,-0.584736913396,0.429621054844,-0.057363284354,-0.466126176992,0.2208812049,0.268018583865,0.649479944934,-0.214458914472,-0.590845092335,0.35326139464,-0.501768514419,0.138501267711,0.347773028633,-0.186765312277,0.496366778303,0.416543054694,0.610745158403,-0.0602126475213,-0.390827703193,-0.514362686561,0.519662615846,-0.0257005761657,0.00280437569143,-0.515444675107
ow,0.313944454976,0.564403356839,-0.439328855227,-0.70837229388,-0.267910991576,0.648621251088,0.634791687247,0.409857000296,0.298673424739,0.431389912907,-0.28462491162,0.323211941969,-0.610747736476,0.357864710327,0.519316553261,0.133136284476,-0.31850652765,-0.582577453039,0.32600032295,-0.439496485749,-0.634899272038,0.575104768312,-0.0841424884305,0.336416130592,-0.398665474623,0.472058730459,0.586154161558,-0.29866630547,-0.350006162518,-0.466802155558
z,-0.230644487911,-0.656121111652,0.304820270837,-0.42202690494,-0.619527594259,-0.530974617595,-0.600829179044,-0.424169837693,0.344406360462,0.308087531398,0.25985035522,0.646501009396,0.36262102009,0.610922937616,0.513954165581,0.557407288662,-0.398072112314,0.416986994932,0.418701882953,0.43290868857,0.289300716079,-0.618032622199,0.219728225768,0.135580883026,-0.384019705377,-0.456736169958,0.591411824914,-0.252118432818,0.0975512788184,-0.406403136158
uw,0.616671664605,-0.582184617398,-0.678006984891,-0.168593904483,0.599830080304,0.598928908216,0.493411025032,0.107428372632,-0.492002256739,-0.226195551767,0.536201243526,0.597734664337,-0.439023233409,-0.15121359134,0.653442939039,0.602042913096,-0.240771945927,-0.675772179849,0.592970579547,0.550068202731,-0.548453452043,0.45114410213,0.393406603796,0.550278725061,-0.694948980876,0.654410514934,0.671151047908,0.689453001015,0.176176513591,0.317951602529
